{"learner":{"attributes":{"scikit_learn":"{\"_estimator_type\": \"classifier\"}"},"feature_names":["url_length","url_ip_in_domain","url_domain_entropy","url_is_digits_in_domain","url_query_length","url_number_of_parameters","url_number_of_digits","url_string_entropy","url_is_https","url_path_length","url_host_length","url_number_of_subdirectories","get_tld","url_domain_len","url_num_subdomain","url_has_port","url_number_of_fragments","url_is_encoded","url_number_of_letters","url_num_periods","url_num_of_hyphens","url_num_underscore","url_num_equal","url_num_forward_slash","url_num_question_mark","url_num_semicolon","url_num_open_parenthesis","url_num_close_parenthesis","url_num_mod_sign","url_num_ampersand","url_num_at","has_secure_in_string","has_account_in_string","has_webscr_in_string","has_login_in_string","has_ebayisapi_in_string","has_signin_in_string","has_banking_in_string","has_confirm_in_string","has_blog_in_string","has_logon_in_string","has_signon_in_string","has_loginasp_in_string","has_loginphp_in_string","has_loginhtm_in_string","has_exe_in_string","has_zip_in_string","has_rar_in_string","has_jpg_in_string","has_gif_in_string","has_viewerphp_in_string","has_linkeq_in_string","has_getImageasp_in_string","has_plugins_in_string","has_paypal_in_string","has_order_in_string","has_dbsysphp_in_string","has_configbin_in_string","has_downloadphp_in_string","has_js_in_string","has_payment_in_string","has_files_in_string","has_css_in_string","has_shopping_in_string","has_mailphp_in_string","has_jar_in_string","has_swf_in_string","has_cgi_in_string","has_php_in_string","has_abuse_in_string","has_admin_in_string","has_bin_in_string","has_personal_in_string","has_update_in_string","has_verification_in_string"],"feature_types":["int","int","float","int","int","int","int","float","int","int","int","int","int","int","int","int","int","int","int","int","int","int","int","int","int","int","int","int","int","int","int","int","int","int","int","int","int","int","int","int","int","int","int","int","int","int","int","int","int","int","int","int","int","int","int","int","int","int","int","int","int","int","int","int","int","int","int","int","int","int","int","int","int","int","int"],"gradient_booster":{"model":{"gbtree_model_param":{"num_parallel_tree":"1","num_trees":"400"},"iteration_indptr":[0,4,8,12,16,20,24,28,32,36,40,44,48,52,56,60,64,68,72,76,80,84,88,92,96,100,104,108,112,116,120,124,128,132,136,140,144,148,152,156,160,164,168,172,176,180,184,188,192,196,200,204,208,212,216,220,224,228,232,236,240,244,248,252,256,260,264,268,272,276,280,284,288,292,296,300,304,308,312,316,320,324,328,332,336,340,344,348,352,356,360,364,368,372,376,380,384,388,392,396,400],"tree_info":[0,1,2,3,0,1,2,3,0,1,2,3,0,1,2,3,0,1,2,3,0,1,2,3,0,1,2,3,0,1,2,3,0,1,2,3,0,1,2,3,0,1,2,3,0,1,2,3,0,1,2,3,0,1,2,3,0,1,2,3,0,1,2,3,0,1,2,3,0,1,2,3,0,1,2,3,0,1,2,3,0,1,2,3,0,1,2,3,0,1,2,3,0,1,2,3,0,1,2,3,0,1,2,3,0,1,2,3,0,1,2,3,0,1,2,3,0,1,2,3,0,1,2,3,0,1,2,3,0,1,2,3,0,1,2,3,0,1,2,3,0,1,2,3,0,1,2,3,0,1,2,3,0,1,2,3,0,1,2,3,0,1,2,3,0,1,2,3,0,1,2,3,0,1,2,3,0,1,2,3,0,1,2,3,0,1,2,3,0,1,2,3,0,1,2,3,0,1,2,3,0,1,2,3,0,1,2,3,0,1,2,3,0,1,2,3,0,1,2,3,0,1,2,3,0,1,2,3,0,1,2,3,0,1,2,3,0,1,2,3,0,1,2,3,0,1,2,3,0,1,2,3,0,1,2,3,0,1,2,3,0,1,2,3,0,1,2,3,0,1,2,3,0,1,2,3,0,1,2,3,0,1,2,3,0,1,2,3,0,1,2,3,0,1,2,3,0,1,2,3,0,1,2,3,0,1,2,3,0,1,2,3,0,1,2,3,0,1,2,3,0,1,2,3,0,1,2,3,0,1,2,3,0,1,2,3,0,1,2,3,0,1,2,3,0,1,2,3,0,1,2,3,0,1,2,3,0,1,2,3,0,1,2,3,0,1,2,3,0,1,2,3,0,1,2,3,0,1,2,3,0,1,2,3,0,1,2,3,0,1,2,3,0,1,2,3,0,1,2,3],"trees":[{"base_weights":[9.188296E-4,9.869802E-1,-5.7916194E-1,-6.5746737E-1,1.2378263E0,-6.3649064E-1,9.858129E-2,-6.579376E-1,-0E0,1.8972285E0,9.284482E-1,-6.389768E-1,1.7402805E0,8.059227E-1,-3.2427853E-1,-6.5825236E-1,1.6867469E-1,-5.3061223E-1,8.3870965E-1,1.8166276E0,1.9633764E0,5.610091E-1,1.5176778E0,-6.4783084E-1,1.0797316E-2,-5.785124E-1,1.9823087E0,1.6232069E-1,1.2631388E0,5.240355E-1,-4.7807342E-1,-6.583708E-1,3.448276E-1,-1.7288136E-1,4.5000002E-1,-4.615385E-2,-1.8E-1,4.8292685E-1,-1.4482759E-1,5.931776E-1,1.6132597E0,-5E-1,1.96416E0,8.956985E-1,-5.3938273E-2,1.8221853E0,1.1927836E0,-6.513299E-1,2.9464492E-1,-1.9986613E-1,4.132922E-1,-1.9266056E-1,-0E0,-1.0588236E-1,5.978686E-1,5.302745E-1,-6.123095E-1,1.34092E0,-1.4113598E-1,-4.7954378E-1,1.2381289E0,-5.2165556E-1,5.974138E-1,-1.999873E-1,-1.9335343E-1,3.176471E-1,-1.20000005E-1,3.325037E-1,5.113011E-1,3.529412E-2,-1.7746478E-1,5.7863414E-1,5.925856E-1,4.9343148E-1,1.7579275E-1,-2.3551868E-2,5.8676285E-1,4.948729E-1,5.6397116E-1,1.788824E-1,4.9527448E-1,-1.9710934E-1,-1.3574524E-1,-1.9653223E-1,5.3231496E-1,4.3467796E-1,-8.3779976E-2,-1.20000005E-1,1.20000005E-1,4.8471904E-1,-1.2791616E-2,-1.9982587E-1,-2.2030238E-2,2.9374963E-1,4.6795166E-1,4.8529413E-1,-1.1184466E-1,3.4446764E-1,-1.7450956E-1,8.045422E-2,5.383248E-1,-1.6270599E-1,2.9351014E-1],"categories":[],"categories_nodes":[],"categories_segments":[],"categories_sizes":[],"default_left":[0,0,0,0,0,0,0,0,0,0,0,0,0,0,0,0,0,0,0,0,0,0,0,0,0,0,0,0,0,0,0,0,0,0,0,0,0,0,0,0,0,0,0,0,0,0,0,0,0,0,0,0,0,0,0,0,0,0,0,0,0,0,0,0,0,0,0,0,0,0,0,0,0,0,0,0,0,0,0,0,0,0,0,0,0,0,0,0,0,0,0,0,0,0,0,0,0,0,0,0,0,0,0],"id":0,"left_children":[1,3,5,7,9,11,13,15,17,19,21,23,25,27,29,31,33,35,37,39,41,43,45,47,49,51,53,55,57,59,61,63,65,-1,-1,-1,-1,-1,-1,-1,67,69,71,73,75,77,79,81,83,-1,85,-1,87,-1,-1,89,91,93,95,97,99,101,-1,-1,-1,-1,-1,-1,-1,-1,-1,-1,-1,-1,-1,-1,-1,-1,-1,-1,-1,-1,-1,-1,-1,-1,-1,-1,-1,-1,-1,-1,-1,-1,-1,-1,-1,-1,-1,-1,-1,-1,-1],"loss_changes":[2.938328E5,7.848689E4,1.2566664E4,7.786133E0,3.3676484E4,1.7632266E3,7.5453296E3,6.658203E0,8.900593E0,2.7751562E2,2.4327469E4,1.7138438E3,1.7617523E2,2.777143E3,2.0600698E3,3.2148438E0,1.1153972E1,2.2794342E-1,8.673702E0,7.7352344E2,5.684375E1,1.4244803E4,4.2675625E3,9.69375E2,1.0917927E3,1.1145649E0,7.6903076E0,1.1179913E3,6.0289844E2,1.7373931E3,1.4395015E3,2.4472656E0,2.3513184E0,0E0,0E0,0E0,0E0,0E0,0E0,0E0,4.8087305E2,6.350455E-1,7.5859375E0,1.0397121E4,1.2046382E3,2.1882031E2,5.705877E3,3.316328E2,1.5298696E3,0E0,1.8026432E3,0E0,8E-1,0E0,0E0,1.6536262E3,3.6558716E1,4.1254395E2,1.18974304E2,1.6832407E2,7.636841E2,4.083213E2,0E0,0E0,0E0,0E0,0E0,0E0,0E0,0E0,0E0,0E0,0E0,0E0,0E0,0E0,0E0,0E0,0E0,0E0,0E0,0E0,0E0,0E0,0E0,0E0,0E0,0E0,0E0,0E0,0E0,0E0,0E0,0E0,0E0,0E0,0E0,0E0,0E0,0E0,0E0,0E0,0E0],"parents":[2147483647,0,0,1,1,2,2,3,3,4,4,5,5,6,6,7,7,8,8,9,9,10,10,11,11,12,12,13,13,14,14,15,15,16,16,17,17,18,18,19,19,20,20,21,21,22,22,23,23,24,24,25,25,26,26,27,27,28,28,29,29,30,30,31,31,32,32,40,40,41,41,42,42,43,43,44,44,45,45,46,46,47,47,48,48,50,50,52,52,55,55,56,56,57,57,58,58,59,59,60,60,61,61],"right_children":[2,4,6,8,10,12,14,16,18,20,22,24,26,28,30,32,34,36,38,40,42,44,46,48,50,52,54,56,58,60,62,64,66,-1,-1,-1,-1,-1,-1,-1,68,70,72,74,76,78,80,82,84,-1,86,-1,88,-1,-1,90,92,94,96,98,100,102,-1,-1,-1,-1,-1,-1,-1,-1,-1,-1,-1,-1,-1,-1,-1,-1,-1,-1,-1,-1,-1,-1,-1,-1,-1,-1,-1,-1,-1,-1,-1,-1,-1,-1,-1,-1,-1,-1,-1,-1,-1],"split_conditions":[4E0,2E0,6.6E1,1E0,2E0,1.1E1,1.4E1,7E0,1.9E1,3.9900172E0,4.8E1,2E0,1E1,5E0,2E0,1.7E1,2E0,4.6E1,1E0,2E0,1E0,3E0,3E0,8E0,8.3E1,6.4E1,7.3E1,1E0,3E0,4E0,9.179231E18,2E0,1.2E2,-1.7288136E-1,4.5000002E-1,-4.615385E-2,-1.8E-1,4.8292685E-1,-1.4482759E-1,5.931776E-1,2.4E1,3.4E1,4.1185794E0,2E0,1E0,5.4E1,6.4E1,5.9E1,5.7E1,-1.9986613E-1,3E0,-1.9266056E-1,1.9717473E0,-1.0588236E-1,5.978686E-1,2E0,6E0,9E0,-6.705936E18,-1.3962698E18,5E0,1E0,5.974138E-1,-1.999873E-1,-1.9335343E-1,3.176471E-1,-1.20000005E-1,3.325037E-1,5.113011E-1,3.529412E-2,-1.7746478E-1,5.7863414E-1,5.925856E-1,4.9343148E-1,1.7579275E-1,-2.3551868E-2,5.8676285E-1,4.948729E-1,5.6397116E-1,1.788824E-1,4.9527448E-1,-1.9710934E-1,-1.3574524E-1,-1.9653223E-1,5.3231496E-1,4.3467796E-1,-8.3779976E-2,-1.20000005E-1,1.20000005E-1,4.8471904E-1,-1.2791616E-2,-1.9982587E-1,-2.2030238E-2,2.9374963E-1,4.6795166E-1,4.8529413E-1,-1.1184466E-1,3.4446764E-1,-1.7450956E-1,8.045422E-2,5.383248E-1,-1.6270599E-1,2.9351014E-1],"split_indices":[10,11,9,33,19,11,10,4,6,7,0,28,6,20,19,19,19,0,73,23,19,19,19,19,0,9,0,3,19,20,12,19,0,0,0,0,0,0,0,0,9,0,7,23,34,0,0,9,9,0,19,0,2,0,0,19,11,20,12,12,6,59,0,0,0,0,0,0,0,0,0,0,0,0,0,0,0,0,0,0,0,0,0,0,0,0,0,0,0,0,0,0,0,0,0,0,0,0,0,0,0,0,0],"split_type":[0,0,0,0,0,0,0,0,0,0,0,0,0,0,0,0,0,0,0,0,0,0,0,0,0,0,0,0,0,0,0,0,0,0,0,0,0,0,0,0,0,0,0,0,0,0,0,0,0,0,0,0,0,0,0,0,0,0,0,0,0,0,0,0,0,0,0,0,0,0,0,0,0,0,0,0,0,0,0,0,0,0,0,0,0,0,0,0,0,0,0,0,0,0,0,0,0,0,0,0,0,0,0],"sum_hessian":[5.13696E5,1.9026675E5,3.2342925E5,2.5182E4,1.6508475E5,2.9820488E5,2.5224375E4,2.5164E4,1.8E1,5.2717875E4,1.12366875E5,2.97894E5,3.10875E2,9.43725E3,1.5787125E4,2.5154625E4,9.375E0,1.125E1,6.75E0,2.377575E4,2.8942125E4,6.921E4,4.3156875E4,2.9388938E5,4.004625E3,2.925E1,2.81625E2,3.92025E3,5.517E3,2.4225E3,1.3364625E4,2.5152E4,2.625E0,6.375E0,3E0,2.25E0,9E0,4.125E0,2.625E0,1.327875E4,1.0497E4,9E0,2.8933125E4,4.4817375E4,2.4392625E4,2.2275E4,2.0881875E4,2.9280262E5,1.08675E3,1.492875E3,2.51175E3,2.625E1,3E0,1.125E0,2.805E2,2.658E3,1.26225E3,5.2275E3,2.895E2,1.00725E3,1.41525E3,1.3133625E4,2.31E2,1.5734625E4,9.417375E3,1.125E0,1.5E0,1.606125E3,8.890875E3,1.125E0,7.875E0,6.963375E3,2.196975E4,1.3108875E4,3.17085E4,2.4099E4,2.93625E2,5.589375E3,1.6685625E4,9.072E3,1.1809875E4,2.8463925E5,8.163375E3,6.6225E2,4.245E2,1.006125E3,1.505625E3,1.5E0,1.5E0,9.17625E2,1.740375E3,1.1475E3,1.1475E2,1.972875E3,3.254625E3,3.3E1,2.565E2,5.8875E1,9.48375E2,5.16375E2,8.98875E2,1.29555E4,1.78125E2],"tree_param":{"num_deleted":"0","num_feature":"75","num_nodes":"103","size_leaf_vector":"1"}},{"base_weights":[6.6186876E-5,-2.8968874E-1,1.4281535E0,-1.9999072E-1,-7.434518E-3,-1.9997884E-1,1.6846219E0,6.2488663E-1,-4.6847162E-1,1.7572609E0,-1.9991359E-1,1.2046715E0,-1.9999374E-1,-5.0177646E-1,1.9638342E0,1.9622475E0,1.2723228E0,-5.646609E-1,1.2935109E0,-5.8070165E-1,2.2235204E-1,1.9888881E0,-1.8947369E-1,1.9680293E0,-1.9828327E-1,1.369859E0,-4.5894736E-1,-1.9819373E-1,-4.28826E-2,4.1493994E-1,-1.9993244E-1,-1.8643367E-1,-4.0668197E-2,-2.544167E-2,3.1852257E-1,5.996813E-1,-1.7538463E-1,1.2540676E-1,5.9217286E-1,-7.362656E-2,4.2834172E-1,3.0951008E-1,-1.545028E-1],"categories":[],"categories_nodes":[],"categories_segments":[],"categories_sizes":[],"default_left":[0,0,0,0,0,0,0,0,0,0,0,0,0,0,0,0,0,0,0,0,0,0,0,0,0,0,0,0,0,0,0,0,0,0,0,0,0,0,0,0,0,0,0],"id":1,"left_children":[1,3,5,-1,7,-1,9,11,13,15,-1,17,-1,19,21,23,25,27,29,31,33,35,-1,37,-1,39,41,-1,-1,-1,-1,-1,-1,-1,-1,-1,-1,-1,-1,-1,-1,-1,-1],"loss_changes":[2.1256581E5,4.5435992E4,4.655133E4,0E0,7.118997E4,0E0,1.3184281E4,7.7107266E4,1.1441518E4,7.4413125E3,0E0,1.1171773E4,0E0,7.9625977E3,1.25316895E2,7.995625E2,3.7580703E3,1.3747217E2,1.1887727E4,2.278414E3,3.530584E3,5.004541E1,0E0,4.7782812E2,0E0,1.9720547E3,9.976898E1,0E0,0E0,0E0,0E0,0E0,0E0,0E0,0E0,0E0,0E0,0E0,0E0,0E0,0E0,0E0,0E0],"parents":[2147483647,0,0,1,1,2,2,4,4,6,6,7,7,8,8,9,9,11,11,13,13,14,14,15,15,16,16,17,17,18,18,19,19,20,20,21,21,23,23,25,25,26,26],"right_children":[2,4,6,-1,8,-1,10,12,14,16,-1,18,-1,20,22,24,26,28,30,32,34,36,-1,38,-1,40,42,-1,-1,-1,-1,-1,-1,-1,-1,-1,-1,-1,-1,-1,-1,-1,-1],"split_conditions":[1E0,7E0,7E0,-1.9999072E-1,5E0,-1.9997884E-1,1E0,1E0,1E0,1.1E1,-1.9991359E-1,5E0,-1.9999374E-1,3E0,1E0,4E0,1E0,3E0,1E0,4E0,3.008695E0,1E0,-1.8947369E-1,1E1,-1.9828327E-1,1.921928E0,3E0,-1.9819373E-1,-4.28826E-2,4.1493994E-1,-1.9993244E-1,-1.8643367E-1,-4.0668197E-2,-2.544167E-2,3.1852257E-1,5.996813E-1,-1.7538463E-1,1.2540676E-1,5.9217286E-1,-7.362656E-2,4.2834172E-1,3.0951008E-1,-1.545028E-1],"split_indices":[68,10,10,0,6,0,8,8,51,9,0,9,0,20,21,23,34,9,45,4,2,8,0,9,0,2,11,0,0,0,0,0,0,0,0,0,0,0,0,0,0,0,0],"split_type":[0,0,0,0,0,0,0,0,0,0,0,0,0,0,0,0,0,0,0,0,0,0,0,0,0,0,0,0,0,0,0,0,0,0,0,0,0,0,0,0,0,0,0],"sum_hessian":[5.13696E5,4.2704962E5,8.6646375E4,1.8285188E5,2.4419775E5,9.451125E3,7.719525E4,1.02970875E5,1.4122688E5,7.4881875E4,2.313375E3,7.106775E4,3.1903125E4,1.3932E5,1.906875E3,5.263125E4,2.2250625E4,3.3975E3,6.767025E4,1.25627625E5,1.3692375E4,1.888875E3,1.8E1,5.251575E4,1.155E2,2.1064125E4,1.1865E3,2.767125E3,6.30375E2,6.47115E4,2.95875E3,1.1509275E5,1.0534875E4,1.0024875E4,3.6675E3,1.88175E3,7.125E0,1.9875E2,5.2317E4,7.29375E2,2.033475E4,4.2375E1,1.144125E3],"tree_param":{"num_deleted":"0","num_feature":"75","num_nodes":"43","size_leaf_vector":"1"}},{"base_weights":[-1.9272062E-4,1.8907303E0,-8.6567014E-2,-4.6386737E-1,1.9657428E0,1.4844642E0,-1.714407E-1,1.3204633E0,-6.4655685E-1,1.9790386E0,-1.4402917E-1,1.543235E0,3.1439236E-1,-2.2231343E-1,1.1587899E0,-1.8202247E-1,1.6887872E0,-6.576325E-1,4.3448275E-1,1.9831883E0,1.323741E0,-4.757895E-1,5.6903225E-1,1.4962965E0,1.8668095E0,1.8555046E0,-5.580792E-1,-4.8145625E-1,-5.5288997E-2,1.3732599E0,-2.6215805E-2,5.827338E-1,1.1856288E0,-5.552239E-1,-1.991473E-1,1.832124E0,1.987714E0,4.8692152E-1,5.9229535E-1,4.8292685E-1,-5.648855E-1,1.3854799E0,1.5752103E0,1.9004447E0,1.4878412E0,1.9478488E0,1.1588784E0,-6.336898E-1,5.6170213E-1,-5.7318956E-1,3.4976912E-1,3.7370524E-1,-2.2253592E-1,1.4914877E0,-3.2401055E-1,-3.5491845E-1,1.0639344E0,9E-2,5.494737E-1,-1.9398497E-1,-5.454546E-2,4.445521E-1,5.9861076E-1,5.966758E-1,4.96136E-1,-1.8082192E-2,5.657143E-1,-1.8226165E-1,3.9130437E-1,5.86586E-1,4.101667E-1,4.7670493E-1,2.2555283E-1,5.5103767E-1,5.8964664E-1,1.9941945E-1,5.7121444E-1,5.866361E-1,7.826087E-2,5.731844E-1,1.7976654E-1,4.9787238E-1,-1.9529016E-1,-1.8091713E-1,2.1613424E-1,4.3372172E-1,-1.176653E-2,-1.4185517E-1,2.252793E-1,-9.6511014E-2,6.395705E-2,3.6225015E-1,5.5803543E-1,-1.9975789E-1,5.951021E-1,3.3702773E-1,-1.2928952E-1,4.7313637E-1,-1.5663053E-1],"categories":[],"categories_nodes":[],"categories_segments":[],"categories_sizes":[],"default_left":[0,0,0,0,0,0,0,0,0,0,0,0,0,0,0,0,0,0,0,0,0,0,0,0,0,0,0,0,0,0,0,0,0,0,0,0,0,0,0,0,0,0,0,0,0,0,0,0,0,0,0,0,0,0,0,0,0,0,0,0,0,0,0,0,0,0,0,0,0,0,0,0,0,0,0,0,0,0,0,0,0,0,0,0,0,0,0,0,0,0,0,0,0,0,0,0,0,0,0],"id":2,"left_children":[1,3,5,7,9,11,13,15,17,19,21,23,25,27,29,-1,31,33,-1,35,37,39,-1,41,43,45,47,49,51,53,55,-1,57,59,-1,61,63,65,-1,-1,67,69,71,73,75,77,79,81,-1,83,85,87,89,91,93,95,97,-1,-1,-1,-1,-1,-1,-1,-1,-1,-1,-1,-1,-1,-1,-1,-1,-1,-1,-1,-1,-1,-1,-1,-1,-1,-1,-1,-1,-1,-1,-1,-1,-1,-1,-1,-1,-1,-1,-1,-1,-1,-1],"loss_changes":[8.390083E4,3.9643438E3,6.5504227E4,2.2696057E2,6.103125E2,1.7310195E3,3.1541E4,4.698651E1,1.5566589E1,5.6148438E1,9.374398E1,3.6133984E2,1.6219226E3,1.943033E4,4.363283E3,0E0,4.668808E0,2.9174805E-2,0E0,1.103125E1,7.471239E1,2.2974718E1,0E0,1.8096484E2,3.5836914E1,2.5790161E1,1.4277791E2,1.3415711E4,1.9585465E4,2.9175684E3,9.43516E2,0E0,1.1392532E1,1.3114824E0,0E0,3.3489746E1,5.1015625E0,4.7664948E1,0E0,0E0,9.931377E0,8.80332E1,1.3776953E2,7.9091797E0,8.502258E1,4.410034E0,2.1363327E1,3.0717255E1,0E0,6.122676E3,7.455262E3,2.445254E4,8.486718E3,1.4205059E3,7.487841E2,2.2791603E2,4.9732245E2,0E0,0E0,0E0,0E0,0E0,0E0,0E0,0E0,0E0,0E0,0E0,0E0,0E0,0E0,0E0,0E0,0E0,0E0,0E0,0E0,0E0,0E0,0E0,0E0,0E0,0E0,0E0,0E0,0E0,0E0,0E0,0E0,0E0,0E0,0E0,0E0,0E0,0E0,0E0,0E0,0E0,0E0],"parents":[2147483647,0,0,1,1,2,2,3,3,4,4,5,5,6,6,7,7,8,8,9,9,10,10,11,11,12,12,13,13,14,14,16,16,17,17,19,19,20,20,21,21,23,23,24,24,25,25,26,26,27,27,28,28,29,29,30,30,32,32,33,33,35,35,36,36,37,37,40,40,41,41,42,42,43,43,44,44,45,45,46,46,47,47,49,49,50,50,51,51,52,52,53,53,54,54,55,55,56,56],"right_children":[2,4,6,8,10,12,14,16,18,20,22,24,26,28,30,-1,32,34,-1,36,38,40,-1,42,44,46,48,50,52,54,56,-1,58,60,-1,62,64,66,-1,-1,68,70,72,74,76,78,80,82,-1,84,86,88,90,92,94,96,98,-1,-1,-1,-1,-1,-1,-1,-1,-1,-1,-1,-1,-1,-1,-1,-1,-1,-1,-1,-1,-1,-1,-1,-1,-1,-1,-1,-1,-1,-1,-1,-1,-1,-1,-1,-1,-1,-1,-1,-1,-1,-1],"split_conditions":[3E0,7E0,2E0,2.3E1,4E0,4E0,2E0,-8.696709E18,1E0,2E0,1.01E2,3E1,1E0,1.9E1,1E0,-1.8202247E-1,2.7773628E0,3.408695E0,4.3448275E-1,-5.8650666E18,1.8E1,8E0,5.6903225E-1,1.5E1,3.8431392E0,1.6E1,6.8E1,1E0,4.1E1,1E0,2.6E1,5.827338E-1,2.8225799E0,-1.9784816E18,-1.991473E-1,2.7E1,6E0,1E0,5.9229535E-1,4.8292685E-1,7.926344E18,4E0,4.0943933E0,1E0,2.7E1,6.7E1,4.115834E0,3.9077342E0,5.6170213E-1,5E0,7.811094E18,2E0,1E0,2.1E1,4E0,0E0,6E0,9E-2,5.494737E-1,-1.9398497E-1,-5.454546E-2,4.445521E-1,5.9861076E-1,5.966758E-1,4.96136E-1,-1.8082192E-2,5.657143E-1,-1.8226165E-1,3.9130437E-1,5.86586E-1,4.101667E-1,4.7670493E-1,2.2555283E-1,5.5103767E-1,5.8964664E-1,1.9941945E-1,5.7121444E-1,5.866361E-1,7.826087E-2,5.731844E-1,1.7976654E-1,4.9787238E-1,-1.9529016E-1,-1.8091713E-1,2.1613424E-1,4.3372172E-1,-1.176653E-2,-1.4185517E-1,2.252793E-1,-9.6511014E-2,6.395705E-2,3.6225015E-1,5.5803543E-1,-1.9975789E-1,5.951021E-1,3.3702773E-1,-1.2928952E-1,4.7313637E-1,-1.5663053E-1],"split_indices":[9,18,11,0,28,14,14,12,8,22,18,9,3,9,5,0,2,7,0,12,10,10,0,18,2,13,0,8,0,54,10,0,2,12,0,0,14,25,0,0,12,13,7,20,13,6,7,7,0,23,12,19,8,10,10,12,14,0,0,0,0,0,0,0,0,0,0,0,0,0,0,0,0,0,0,0,0,0,0,0,0,0,0,0,0,0,0,0,0,0,0,0,0,0,0,0,0,0,0],"split_type":[0,0,0,0,0,0,0,0,0,0,0,0,0,0,0,0,0,0,0,0,0,0,0,0,0,0,0,0,0,0,0,0,0,0,0,0,0,0,0,0,0,0,0,0,0,0,0,0,0,0,0,0,0,0,0,0,0,0,0,0,0,0,0,0,0,0,0,0,0,0,0,0,0,0,0,0,0,0,0,0,0,0,0,0,0,0,0,0,0,0,0,0,0,0,0,0,0,0,0],"sum_hessian":[5.13696E5,2.2438875E4,4.9125712E5,6.92625E2,2.174625E4,2.5178625E4,4.660785E5,6.375E1,6.28875E2,2.1610125E4,1.36125E2,2.3974125E4,1.2045E3,4.4891138E5,1.7167125E4,1.0125E1,5.3625E1,6.2625E2,2.625E0,2.1472125E4,1.38E2,1.1775E2,1.8375E1,2.0941875E4,3.03225E3,4.35E2,7.695E2,1.7593762E5,2.7297375E5,1.4536125E4,2.631E3,3.375E1,1.9875E1,4.0875E1,5.85375E2,6.36375E2,2.083575E4,6.1125E1,7.6875E1,4.125E0,1.13625E2,8.718E3,1.2223875E4,2.781375E3,2.50875E2,3.825E2,5.25E1,7.47E2,2.25E1,1.5845138E5,1.748625E4,7.6569375E4,1.9640438E5,1.3589625E4,9.465E2,2.022E3,6.09E2,9E0,1.0875E1,3.225E1,8.625E0,2.055E2,4.30875E2,2.0755875E4,7.9875E1,4.4625E1,1.65E1,1.1175E2,1.875E0,2.67375E2,8.450625E3,1.2021375E4,2.025E2,1.4205E3,1.360875E3,8.5125E1,1.6575E2,3.80625E2,1.875E0,2.1375E1,3.1125E1,4.875E0,7.42125E2,1.5487612E5,3.57525E3,4.579875E3,1.2906375E4,2.3602125E4,5.296725E4,1.5999188E5,3.64125E4,7.6785E3,5.911125E3,8.25E2,1.215E2,9.825E1,1.92375E3,4.60125E2,1.48875E2],"tree_param":{"num_deleted":"0","num_feature":"75","num_nodes":"99","size_leaf_vector":"1"}},{"base_weights":[-7.9229585E-4,-3.1674346E-1,1.4542875E0,-4.8418498E-1,1.992605E0,-7.817615E-2,1.782162E0,-5.481845E-1,-5.5264566E-2,9.220685E-1,1.9990128E0,-1.84275E-1,1.9648902E0,1.9409899E0,3.3574834E-1,-5.546413E-1,1.2133507E0,5.53233E-1,-5.160456E-1,-1.9411767E-1,1.3002706E0,1.999189E0,-1.3043478E-1,-2.9414043E-1,1.7450151E0,-1.5428573E-1,1.9760743E0,-5.3402364E-1,1.9658041E0,7.3704E-1,-6.561357E-1,-5.64432E-1,4.1787645E-1,1.841109E0,-1.993633E-1,1.0626949E0,-1.6341753E-1,-5.4513663E-1,1.9498894E0,1.6367476E0,-1.9058825E-1,1.99933E0,-1.20000005E-1,-3.4041023E-1,5.979185E-1,1.9352387E0,-2.8173912E-1,1.9860958E0,-1.5E-1,-1.9968095E-1,1.1221945E0,1.9735767E0,1.3880402E-1,1.272064E0,-3.486552E-1,-6.6263026E-1,5.04E-1,-6.7854345E-2,-1.7616901E-1,-1.8264617E-1,4.4782248E-1,-1.807229E-1,5.5993E-1,-7.587212E-2,5.1603115E-1,-8.9571476E-2,5.977773E-1,-1.6781902E-1,5.962762E-1,-1.6981132E-1,5.982016E-1,2.858639E-1,5.371728E-1,5.9984136E-1,-1.20000005E-1,-1.4280862E-1,9.87882E-3,-1.831579E-1,5.919544E-1,4.0645164E-1,-1.4165068E-1,5.977194E-1,-1.3043478E-1,-1.8504673E-1,5.125828E-1,5.9407055E-1,1.6510732E-3,-1.7221496E-1,4.6338943E-1,-1.5180725E-1,4.4008717E-1,-1.324837E-1,5.618375E-1,-1.9990672E-1,4.5000002E-1],"categories":[],"categories_nodes":[],"categories_segments":[],"categories_sizes":[],"default_left":[0,0,0,0,0,0,0,0,0,0,0,0,0,0,0,0,0,0,0,0,0,0,0,0,0,0,0,0,0,0,0,0,0,0,0,0,0,0,0,0,0,0,0,0,0,0,0,0,0,0,0,0,0,0,0,0,0,0,0,0,0,0,0,0,0,0,0,0,0,0,0,0,0,0,0,0,0,0,0,0,0,0,0,0,0,0,0,0,0,0,0,0,0,0,0],"id":3,"left_children":[1,3,5,7,9,11,13,15,17,19,21,23,25,27,29,31,33,35,37,-1,39,41,-1,43,45,-1,47,49,51,53,55,57,59,61,-1,63,65,67,69,71,-1,73,-1,75,-1,77,79,81,-1,-1,83,85,87,89,91,93,-1,-1,-1,-1,-1,-1,-1,-1,-1,-1,-1,-1,-1,-1,-1,-1,-1,-1,-1,-1,-1,-1,-1,-1,-1,-1,-1,-1,-1,-1,-1,-1,-1,-1,-1,-1,-1,-1,-1],"loss_changes":[2.3616452E5,1.6320136E5,4.6046938E4,1.0802445E4,1.9388281E2,3.5017183E3,1.7342172E4,3.8953906E3,1.4326547E4,1.0269173E2,1.303125E1,3.2554321E3,2.3128662E1,4.1786562E3,2.974052E3,3.248836E3,1.4758356E3,8.039353E3,2.086979E3,0E0,9.1322556E1,1.0390625E1,0E0,1.5383251E3,3.195769E2,0E0,2.0698242E1,1.4806383E2,9.5609375E2,3.0902517E3,3.3769653E1,2.604625E3,3.7542573E3,5.9152588E1,0E0,1.1131442E4,2.6668071E3,1.039081E3,3.8782715E1,1.0746643E1,0E0,1.03984375E1,0E0,7.211321E2,0E0,7.428931E1,2.3039782E1,1.2936279E1,0E0,0E0,5.2170643E1,8.7878125E2,2.8787723E2,1.2356284E3,3.6359476E2,1.8298523E1,0E0,0E0,0E0,0E0,0E0,0E0,0E0,0E0,0E0,0E0,0E0,0E0,0E0,0E0,0E0,0E0,0E0,0E0,0E0,0E0,0E0,0E0,0E0,0E0,0E0,0E0,0E0,0E0,0E0,0E0,0E0,0E0,0E0,0E0,0E0,0E0,0E0,0E0,0E0],"parents":[2147483647,0,0,1,1,2,2,3,3,4,4,5,5,6,6,7,7,8,8,9,9,10,10,11,11,12,12,13,13,14,14,15,15,16,16,17,17,18,18,20,20,21,21,23,23,24,24,26,26,27,27,28,28,29,29,30,30,31,31,32,32,33,33,35,35,36,36,37,37,38,38,39,39,41,41,43,43,45,45,46,46,47,47,50,50,51,51,52,52,53,53,54,54,55,55],"right_children":[2,4,6,8,10,12,14,16,18,20,22,24,26,28,30,32,34,36,38,-1,40,42,-1,44,46,-1,48,50,52,54,56,58,60,62,-1,64,66,68,70,72,-1,74,-1,76,-1,78,80,82,-1,-1,84,86,88,90,92,94,-1,-1,-1,-1,-1,-1,-1,-1,-1,-1,-1,-1,-1,-1,-1,-1,-1,-1,-1,-1,-1,-1,-1,-1,-1,-1,-1,-1,-1,-1,-1,-1,-1,-1,-1,-1,-1,-1,-1],"split_conditions":[1E0,1E0,9E0,1E0,4E0,1E0,4.47888E0,1E0,1.8E1,3.7E1,1E0,4E0,2.1E1,4E0,3E1,1E0,6E0,1.4E1,1E0,-1.9411767E-1,4E0,4E0,-1.3043478E-1,1E0,6E0,-1.5428573E-1,1E0,4E0,3E0,1.7E1,1E0,1E0,1.2E1,2E0,-1.993633E-1,3.3E1,1E0,1E0,3E0,1.921928E0,-1.9058825E-1,1E0,-1.20000005E-1,7.811094E18,5.979185E-1,4E1,1E0,1E0,-1.5E-1,-1.9968095E-1,4E0,6E0,3E0,4E0,1E0,1E0,5.04E-1,-6.7854345E-2,-1.7616901E-1,-1.8264617E-1,4.4782248E-1,-1.807229E-1,5.5993E-1,-7.587212E-2,5.1603115E-1,-8.9571476E-2,5.977773E-1,-1.6781902E-1,5.962762E-1,-1.6981132E-1,5.982016E-1,2.858639E-1,5.371728E-1,5.9984136E-1,-1.20000005E-1,-1.4280862E-1,9.87882E-3,-1.831579E-1,5.919544E-1,4.0645164E-1,-1.4165068E-1,5.977194E-1,-1.3043478E-1,-1.8504673E-1,5.125828E-1,5.9407055E-1,1.6510732E-3,-1.7221496E-1,4.6338943E-1,-1.5180725E-1,4.4008717E-1,-1.324837E-1,5.618375E-1,-1.9990672E-1,4.5000002E-1],"split_indices":[3,45,6,8,10,1,7,71,10,9,59,14,0,10,10,48,19,9,46,0,6,5,0,45,19,0,34,19,4,4,15,23,9,23,0,0,46,48,9,2,0,34,0,12,0,9,9,68,0,0,11,11,19,10,45,48,0,0,0,0,0,0,0,0,0,0,0,0,0,0,0,0,0,0,0,0,0,0,0,0,0,0,0,0,0,0,0,0,0,0,0,0,0,0,0],"split_type":[0,0,0,0,0,0,0,0,0,0,0,0,0,0,0,0,0,0,0,0,0,0,0,0,0,0,0,0,0,0,0,0,0,0,0,0,0,0,0,0,0,0,0,0,0,0,0,0,0,0,0,0,0,0,0,0,0,0,0,0,0,0,0,0,0,0,0,0,0,0,0,0,0,0,0,0,0,0,0,0,0,0,0,0,0,0,0,0,0,0,0,0,0,0,0],"sum_hessian":[5.13696E5,4.220535E5,9.16425E4,3.9352162E5,2.8531875E4,1.6151625E4,7.5490875E4,3.424275E5,5.1094125E4,1.70625E2,2.836125E4,1.5355125E4,7.965E2,6.802125E4,7.469625E3,3.4117762E5,1.249875E3,2.201775E4,2.9076375E4,3.3E1,1.37625E2,2.8359375E4,1.875E0,1.4528625E4,8.265E2,3.375E0,7.93125E2,6.75E2,6.734625E4,5.31825E3,2.151375E3,3.377775E5,3.400125E3,9.3675E2,3.13125E2,1.2868875E4,9.148875E3,2.8738125E4,3.3825E2,1.17375E2,2.025E1,2.8357875E4,1.5E0,1.4241375E4,2.8725E2,7.55625E2,7.0875E1,7.90125E2,3E0,6.25875E2,4.9125E1,6.7060875E4,2.85375E2,3.5625E3,1.75575E3,2.146125E3,5.25E0,2.132925E4,3.1644825E5,1.73925E3,1.660875E3,9.375E0,9.27375E2,4.288125E3,8.58075E3,8.61E3,5.38875E2,2.8578E4,1.60125E2,5.625E0,3.32625E2,2.2875E1,9.45E1,2.8356375E4,1.5E0,1.0446375E4,3.795E3,1.0875E1,7.4475E2,6.75E0,6.4125E1,7.8825E2,1.875E0,1.2375E1,3.675E1,6.683475E4,2.26125E2,1.8975E2,9.5625E1,3.5175E2,3.21075E3,1.686E3,6.975E1,2.143125E3,3E0],"tree_param":{"num_deleted":"0","num_feature":"75","num_nodes":"95","size_leaf_vector":"1"}},{"base_weights":[-1.2799739E-3,6.546717E-1,-5.3698134E-1,-6.1214876E-1,7.882612E-1,-5.781694E-1,2.4210024E-1,-6.1266977E-1,4.627994E-2,9.345849E-1,3.463216E-1,-5.9226036E-1,-7.985172E-3,7.232016E-1,-3.8193616E-1,-6.130178E-1,1.7337184E-1,-4.6798852E-1,6.91459E-1,7.3939514E-1,1.1124631E0,3.335551E-2,9.8749506E-1,-6.1246085E-1,-3.5554588E-1,3.028728E-1,-5.941658E-1,-2.8764132E-1,9.6504736E-1,6.834616E-1,-5.568715E-1,-1.8709405E-1,-5.950088E-1,-1.6151053E-1,3.522668E-1,-3.1159585E-2,-1.6338229E-1,3.5944915E-1,-1.3188913E-1,1.1274458E0,4.7014266E-1,-2.9599613E-1,1.1264815E0,-9.6625745E-2,3.6535928E-1,8.7078744E-1,1.2899173E0,-6.133947E-1,5.0039476E-1,1.5450533E-2,-6.164206E-1,9.1527176E-1,-1.8412805E-1,-6.139863E-1,1.4190255E0,-3.9274037E-1,1.2725582E0,5.400636E-1,1.2090437E0,-6.6731954E-1,8.210206E-1,1.6406298E0,-5.818251E-1,-1.7879139E-1,-2.048778E-2,3.5328802E-1,3.147341E-1,-7.4224696E-3,2.3055647E-1,-1.4420772E-1,4.78653E-1,3.3989212E-1,-1.884334E-1,-3.8619086E-2,4.1758093E-1,9.609067E-2,4.2989343E-1,1.4209233E-1,2.8201884E-1,3.8732353E-1,-7.198082E-2,-1.8469048E-1,-1.1397535E-1,-7.948038E-2,6.298272E-1,1.01838365E-1,-1.679841E-1,-1.902973E-1,-1.5552019E-1,-1.5499383E-1,3.059872E-1,-1.7363322E-1,9.511764E-2,-1.8583804E-1,2.0092651E-2,6.107509E-1,-1.7035952E-1,-1.3442229E-1,3.910956E-1,4.6260545E-1,-1.8260475E-1,4.0382376E-1,9.7636946E-2,-2.26741E-1,3.7355068E-1,-2.0855738E-1,3.9804827E-2,1.5311444E-1,4.9291477E-1,6.1720866E-1,-1.711417E-1,2.6201177E-1,-1.8188363E-1],"categories":[],"categories_nodes":[],"categories_segments":[],"categories_sizes":[],"default_left":[0,0,0,0,0,0,0,0,0,0,0,0,0,0,0,0,0,0,0,0,0,0,0,0,0,0,0,0,0,0,0,0,0,0,0,0,0,0,0,0,0,0,0,0,0,0,0,0,0,0,0,0,0,0,0,0,0,0,0,0,0,0,0,0,0,0,0,0,0,0,0,0,0,0,0,0,0,0,0,0,0,0,0,0,0,0,0,0,0,0,0,0,0,0,0,0,0,0,0,0,0,0,0,0,0,0,0,0,0,0,0,0,0],"id":4,"left_children":[1,3,5,7,9,11,13,15,17,19,21,23,25,27,29,31,33,35,37,39,41,43,45,47,49,51,53,55,57,59,61,-1,63,-1,-1,-1,-1,-1,-1,65,67,69,71,73,75,77,79,81,83,85,87,89,91,93,95,97,99,101,103,105,107,109,111,-1,-1,-1,-1,-1,-1,-1,-1,-1,-1,-1,-1,-1,-1,-1,-1,-1,-1,-1,-1,-1,-1,-1,-1,-1,-1,-1,-1,-1,-1,-1,-1,-1,-1,-1,-1,-1,-1,-1,-1,-1,-1,-1,-1,-1,-1,-1,-1,-1,-1],"loss_changes":[1.743058E5,3.7738367E4,8.761945E3,7.3256836E0,1.3044211E4,2.0836328E3,4.1167236E3,5.921875E0,6.2123055E0,5.2608125E3,1.0068832E4,1.2099688E3,1.140044E3,1.8931057E3,1.1129652E3,3.6958008E0,7.8887224E0,2.3559952E-1,5.269787E0,7.549371E3,1.5657812E3,1.4551875E3,5.797822E2,2.4264062E2,1.9261584E3,1.2194795E3,8.738373E1,2.4573743E2,6.472368E2,1.5707462E2,2.8216187E2,0E0,3.9680176E0,0E0,0E0,0E0,0E0,0E0,0E0,1.1511328E2,6.299505E3,2.7401514E2,8.9496094E2,1.1582827E3,4.559204E2,3.263672E2,8.447266E0,1.21625E2,2.4049544E2,1.5322312E3,2.0177734E1,2.720266E2,4.5079156E2,8.046631E0,2.7430946E1,1.3218251E2,4.8904984E1,3.9406232E2,2.8262012E2,1.8405685E0,1.9450305E2,5.4470398E1,1.8099329E2,0E0,0E0,0E0,0E0,0E0,0E0,0E0,0E0,0E0,0E0,0E0,0E0,0E0,0E0,0E0,0E0,0E0,0E0,0E0,0E0,0E0,0E0,0E0,0E0,0E0,0E0,0E0,0E0,0E0,0E0,0E0,0E0,0E0,0E0,0E0,0E0,0E0,0E0,0E0,0E0,0E0,0E0,0E0,0E0,0E0,0E0,0E0,0E0,0E0,0E0],"parents":[2147483647,0,0,1,1,2,2,3,3,4,4,5,5,6,6,7,7,8,8,9,9,10,10,11,11,12,12,13,13,14,14,15,15,16,16,17,17,18,18,19,19,20,20,21,21,22,22,23,23,24,24,25,25,26,26,27,27,28,28,29,29,30,30,32,32,39,39,40,40,41,41,42,42,43,43,44,44,45,45,46,46,47,47,48,48,49,49,50,50,51,51,52,52,53,53,54,54,55,55,56,56,57,57,58,58,59,59,60,60,61,61,62,62],"right_children":[2,4,6,8,10,12,14,16,18,20,22,24,26,28,30,32,34,36,38,40,42,44,46,48,50,52,54,56,58,60,62,-1,64,-1,-1,-1,-1,-1,-1,66,68,70,72,74,76,78,80,82,84,86,88,90,92,94,96,98,100,102,104,106,108,110,112,-1,-1,-1,-1,-1,-1,-1,-1,-1,-1,-1,-1,-1,-1,-1,-1,-1,-1,-1,-1,-1,-1,-1,-1,-1,-1,-1,-1,-1,-1,-1,-1,-1,-1,-1,-1,-1,-1,-1,-1,-1,-1,-1,-1,-1,-1,-1,-1,-1,-1],"split_conditions":[8E0,2E0,7E0,1E0,3E0,2E0,1.6E1,7E0,1.9E1,4.042433E0,6.1E1,5.7E1,1E0,6.3E1,2E0,2E0,2E0,4.6E1,1E0,2E0,-1.8861534E17,2E0,1E0,1E0,1.6E1,1.4E1,3.3232315E0,2E0,6E0,2.7532758E18,1.7924813E0,-1.8709405E-1,1E0,-1.6151053E-1,3.522668E-1,-3.1159585E-2,-1.6338229E-1,3.5944915E-1,-1.3188913E-1,2E0,2.8E1,2E0,1E0,1E0,1E0,5E0,1E0,9E0,8E0,1E0,5E0,8.4E1,1.1E1,5E0,3.438722E0,1E0,1.3E1,1.1E1,3.9E1,4.5785475E0,5E0,2E1,4.115834E0,-1.7879139E-1,-2.048778E-2,3.5328802E-1,3.147341E-1,-7.4224696E-3,2.3055647E-1,-1.4420772E-1,4.78653E-1,3.3989212E-1,-1.884334E-1,-3.8619086E-2,4.1758093E-1,9.609067E-2,4.2989343E-1,1.4209233E-1,2.8201884E-1,3.8732353E-1,-7.198082E-2,-1.8469048E-1,-1.1397535E-1,-7.948038E-2,6.298272E-1,1.01838365E-1,-1.679841E-1,-1.902973E-1,-1.5552019E-1,-1.5499383E-1,3.059872E-1,-1.7363322E-1,9.511764E-2,-1.8583804E-1,2.0092651E-2,6.107509E-1,-1.7035952E-1,-1.3442229E-1,3.910956E-1,4.6260545E-1,-1.8260475E-1,4.0382376E-1,9.7636946E-2,-2.26741E-1,3.7355068E-1,-2.0855738E-1,3.9804827E-2,1.5311444E-1,4.9291477E-1,6.1720866E-1,-1.711417E-1,2.6201177E-1,-1.8188363E-1],"split_indices":[10,11,20,33,19,28,10,4,6,7,0,9,3,9,19,19,19,0,73,23,12,6,34,72,10,10,2,28,6,12,2,0,39,0,0,0,0,0,0,19,9,21,8,34,39,13,8,5,23,8,20,0,13,20,2,8,10,10,18,7,11,10,7,0,0,0,0,0,0,0,0,0,0,0,0,0,0,0,0,0,0,0,0,0,0,0,0,0,0,0,0,0,0,0,0,0,0,0,0,0,0,0,0,0,0,0,0,0,0,0,0,0,0],"split_type":[0,0,0,0,0,0,0,0,0,0,0,0,0,0,0,0,0,0,0,0,0,0,0,0,0,0,0,0,0,0,0,0,0,0,0,0,0,0,0,0,0,0,0,0,0,0,0,0,0,0,0,0,0,0,0,0,0,0,0,0,0,0,0,0,0,0,0,0,0,0,0,0,0,0,0,0,0,0,0,0,0,0,0,0,0,0,0,0,0,0,0,0,0,0,0,0,0,0,0,0,0,0,0,0,0,0,0,0,0,0,0,0,0],"sum_hessian":[4.960386E5,2.2299144E5,2.7304716E5,2.1271506E4,2.0171994E5,2.5933694E5,1.3710219E4,2.1254758E4,1.6748026E1,1.515436E5,5.0176344E4,2.5308247E5,6.254466E3,7.741638E3,5.9685806E3,2.124557E4,9.186848E0,9.472327E0,7.2756987E0,7.225821E4,7.928538E4,3.3718773E4,1.6457572E4,2.3318186E5,1.9900604E4,4.0873716E3,2.1670945E3,1.4945748E3,6.2470635E3,8.4139246E2,5.127188E3,1.333913E4,7.9064404E3,5.63891E0,3.5479383E0,2.05618E0,7.416147E0,4.9837713E0,2.2919273E0,2.9597979E4,4.266023E4,7.8115247E2,7.8504234E4,2.4232377E4,9.486396E3,1.1877724E4,4.579848E3,2.329868E5,1.9506339E2,8.216564E3,1.1684039E4,1.8101924E3,2.2771792E3,2.1466548E3,2.0439497E1,1.4009514E3,9.362341E1,2.2796562E3,3.9674072E3,7.740928E1,7.6398315E2,5.684083E1,5.070347E3,7.8918877E3,1.4552881E1,1.8032209E4,1.156577E4,1.6046612E4,2.6613617E4,7.123417E2,6.881078E1,7.821519E4,2.890474E2,2.3721674E4,5.1070328E2,9.103499E3,3.8289795E2,1.7653037E3,1.011242E4,4.576531E3,3.317269E0,2.3077092E5,2.2158801E3,1.3248674E2,6.2576653E1,5.25682E3,2.9597449E3,9.874886E3,1.8091534E3,1.23056435E2,1.6871359E3,1.27391E3,1.0032692E3,2.1296267E3,1.7028296E1,1.55786295E1,4.860868E0,1.3574105E3,4.354094E1,8.2051125E1,1.1572285E1,4.782365E2,1.8014197E3,7.126715E1,3.8961401E3,7.492977E1,2.479508E0,5.556338E2,2.0834941E2,4.7885292E1,8.955541E0,8.3222206E1,4.987125E3],"tree_param":{"num_deleted":"0","num_feature":"75","num_nodes":"113","size_leaf_vector":"1"}},{"base_weights":[-5.2794944E-3,-2.4992025E-1,8.9682496E-1,-6.2313384E-1,-5.8909385E-3,-1.8777563E-1,1.0225405E0,-6.2054634E-1,-6.310368E-1,4.3953043E-1,-4.1142157E-1,1.0595045E0,-1.9271778E-1,-6.217345E-1,-1.8510137E-1,-6.3442904E-1,-1.8578433E-1,7.713199E-1,-6.2287366E-1,-5.370658E-1,4.8222408E-2,1.1368922E0,6.7229027E-1,-6.1859936E-1,-6.24849E-1,-6.3791454E-1,-1.8708934E-1,8.5137135E-1,-1.8931618E-1,-6.2634104E-1,-1.8299823E-1,-5.823562E-1,-2.7287753E-2,2.97976E-1,-6.5388155E-1,8.8958913E-1,1.1737051E0,3.8242498E-1,1.020853E0,-1.8692717E-1,-1.8452385E-1,-1.860989E-1,-1.8833049E-1,-1.8985268E-1,-1.9296387E-1,-1.497111E-1,2.6962817E-1,-1.6757044E-1,3.7904363E-2,-1.8649793E-1,-1.9210972E-1,-1.8066692E-1,4.284957E-2,1.2846525E-1,-1.9322704E-1,-1.2816174E-2,1.9922425E-1,-1.9215019E-1,-2.0258802E-1,2.787286E-1,-1.20869525E-1,3.5391676E-1,2.2382304E-2,9.0621464E-2,4.0026495E-1,3.275384E-1,-1.98405E-1],"categories":[],"categories_nodes":[],"categories_segments":[],"categories_sizes":[],"default_left":[0,0,0,0,0,0,0,0,0,0,0,0,0,0,0,0,0,0,0,0,0,0,0,0,0,0,0,0,0,0,0,0,0,0,0,0,0,0,0,0,0,0,0,0,0,0,0,0,0,0,0,0,0,0,0,0,0,0,0,0,0,0,0,0,0,0,0],"id":5,"left_children":[1,3,5,7,9,-1,11,13,15,17,19,21,-1,23,-1,25,-1,27,29,31,33,35,37,39,41,43,-1,45,47,49,-1,51,53,55,57,59,61,63,65,-1,-1,-1,-1,-1,-1,-1,-1,-1,-1,-1,-1,-1,-1,-1,-1,-1,-1,-1,-1,-1,-1,-1,-1,-1,-1,-1,-1],"loss_changes":[1.0937062E5,3.550621E4,2.0239797E4,2.7578125E0,4.2579906E4,0E0,6.011086E3,1.09375E-1,1.1201172E0,3.9599188E4,7.1259316E3,2.8621953E3,0E0,4.609375E-1,0E0,7.0996094E-1,0E0,6.5831836E3,8.1152344E-1,2.2372402E3,4.645101E3,7.238594E2,1.6077642E3,3.0273438E-1,1.8359375E-1,1.8945312E-1,0E0,5.0573203E3,7.6769324E2,9.8339844E-1,0E0,1.2822422E3,2.2219722E3,2.4371755E3,1.5588379E0,5.273916E2,4.5829688E2,6.6432764E2,8.630615E2,0E0,0E0,0E0,0E0,0E0,0E0,0E0,0E0,0E0,0E0,0E0,0E0,0E0,0E0,0E0,0E0,0E0,0E0,0E0,0E0,0E0,0E0,0E0,0E0,0E0,0E0,0E0,0E0],"parents":[2147483647,0,0,1,1,2,2,3,3,4,4,6,6,7,7,8,8,9,9,10,10,11,11,13,13,15,15,17,17,18,18,19,19,20,20,21,21,22,22,23,23,24,24,25,25,27,27,28,28,29,29,31,31,32,32,33,33,34,34,35,35,36,36,37,37,38,38],"right_children":[2,4,6,8,10,-1,12,14,16,18,20,22,-1,24,-1,26,-1,28,30,32,34,36,38,40,42,44,-1,46,48,50,-1,52,54,56,58,60,62,64,66,-1,-1,-1,-1,-1,-1,-1,-1,-1,-1,-1,-1,-1,-1,-1,-1,-1,-1,-1,-1,-1,-1,-1,-1,-1,-1,-1,-1],"split_conditions":[1E0,7E0,7E0,3E0,5E0,-1.8777563E-1,1E0,4.8E1,6.4E1,1E0,4E0,5E0,-1.9271778E-1,2E0,-1.8510137E-1,2E0,-1.8578433E-1,7E0,1E0,4E0,1E0,1E0,2E0,2E0,2E0,4.1E1,-1.8708934E-1,5E0,2E0,1.4E1,-1.8299823E-1,4E0,1E0,1.6E1,3E0,8E0,2E0,1E0,7.4E1,-1.8692717E-1,-1.8452385E-1,-1.860989E-1,-1.8833049E-1,-1.8985268E-1,-1.9296387E-1,-1.497111E-1,2.6962817E-1,-1.6757044E-1,3.7904363E-2,-1.8649793E-1,-1.9210972E-1,-1.8066692E-1,4.284957E-2,1.2846525E-1,-1.9322704E-1,-1.2816174E-2,1.9922425E-1,-1.9215019E-1,-2.0258802E-1,2.787286E-1,-1.20869525E-1,3.5391676E-1,2.2382304E-2,9.0621464E-2,4.0026495E-1,3.275384E-1,-1.98405E-1],"split_indices":[68,10,10,19,6,0,8,0,0,8,11,23,0,23,0,14,0,23,45,4,8,21,20,11,19,0,0,9,6,9,0,20,8,10,4,5,28,51,4,0,0,0,0,0,0,0,0,0,0,0,0,0,0,0,0,0,0,0,0,0,0,0,0,0,0,0,0],"split_type":[0,0,0,0,0,0,0,0,0,0,0,0,0,0,0,0,0,0,0,0,0,0,0,0,0,0,0,0,0,0,0,0,0,0,0,0,0,0,0,0,0,0,0,0,0,0,0,0,0,0,0,0,0,0,0,0,0,0,0,0,0,0,0,0,0,0,0],"sum_hessian":[4.955794E5,3.8985562E5,1.05723805E5,1.5413027E5,2.3572534E5,8.062449E3,9.766136E4,1.1617346E5,3.79568E4,1.1233749E5,1.2338785E5,9.554058E4,2.120782E3,8.686007E4,2.931339E4,2.9415625E4,8.541178E3,8.560368E4,2.6733812E4,9.689996E4,2.6487893E4,7.962498E4,1.5915604E4,4.338612E4,4.347395E4,2.2193584E4,7.2220396E3,7.901901E4,6.584669E3,2.102579E4,5.708023E3,8.899335E4,7.906611E3,1.953828E4,6.9496133E3,1.0320256E4,6.930472E4,8.690593E3,7.2250107E3,1.8985729E4,2.4400395E4,1.7145047E4,2.6328904E4,1.1400193E4,1.0793392E4,2.6786414E3,7.634037E4,3.0343872E3,3.5502815E3,1.5797931E4,5.227858E3,8.6620516E4,2.3728352E3,4.54814E3,3.358471E3,1.012078E4,9.417498E3,4.2958955E3,2.653718E3,1.0014436E4,3.0581985E2,6.892727E4,3.7744247E2,8.0152363E3,6.7535583E2,6.932985E3,2.920257E2],"tree_param":{"num_deleted":"0","num_feature":"75","num_nodes":"67","size_leaf_vector":"1"}},{"base_weights":[9.67101E-3,1.1398383E0,-5.973756E-2,-3.9649406E-1,1.172129E0,9.1847605E-1,-1.3001049E-1,1.043716E0,-5.950456E-1,1.1767001E0,-4.1651553E-1,9.451332E-1,2.517595E-1,-4.0344593E-1,2.0830419E-2,-1.664083E-1,1.2642049E0,-6.07807E-1,3.643297E-1,1.1780945E0,5.489863E-1,-1.862813E-1,3.734706E-1,9.0721816E-1,1.091872E0,1.1329926E0,-5.025352E-1,-5.0716776E-1,3.2342556E-1,1.4839822E-1,-3.4128135E-1,9.9208754E-1,4.2590824E-1,-5.120204E-1,-1.851838E-1,1.1330975E0,1.1861378E0,4.540931E-3,4.1660202E-1,9.227724E-1,5.007301E-1,9.604407E-1,1.1653022E0,1.181143E0,7.445715E-1,-5.81576E-1,1.1628739E0,-5.413982E-1,5.6086147E-1,-2.5095677E-2,1.1096567E0,2.5429165E-1,-6.462105E-1,-4.3833524E-1,1.0973277E0,4.2623445E-1,-1.2751909E-1,-1.8190438E-1,4.4568107E-1,3.149457E-1,3.5087377E-1,3.561216E-1,2.8548807E-1,-1.3516551E-1,3.5455084E-1,2.685818E-1,3.2968575E-1,2.6248398E-1,-5.6352664E-2,3.452112E-1,2.735606E-1,3.2797915E-1,3.580258E-1,2.3794213E-1,3.5834312E-1,8.956021E-2,3.4400207E-1,3.5030943E-1,-1.8016455E-1,3.5794234E-1,1.4260015E-1,-1.6451307E-1,2.227241E-1,8.066698E-2,4.587258E-1,2.632662E-1,-9.4564E-2,3.5361505E-1,-1.9451812E-1,4.642628E-2,3.7588707E-1,4.7279558E-1,-1.9476506E-1,-1.3914637E-1,3.8517216E-1,-1.23850785E-1,3.9283842E-1],"categories":[],"categories_nodes":[],"categories_segments":[],"categories_sizes":[],"default_left":[0,0,0,0,0,0,0,0,0,0,0,0,0,0,0,0,0,0,0,0,0,0,0,0,0,0,0,0,0,0,0,0,0,0,0,0,0,0,0,0,0,0,0,0,0,0,0,0,0,0,0,0,0,0,0,0,0,0,0,0,0,0,0,0,0,0,0,0,0,0,0,0,0,0,0,0,0,0,0,0,0,0,0,0,0,0,0,0,0,0,0,0,0,0,0,0,0],"id":6,"left_children":[1,3,5,7,9,11,13,15,17,19,21,23,25,27,29,-1,31,33,-1,35,37,-1,-1,39,41,43,45,47,49,51,53,55,-1,57,-1,59,61,63,-1,65,67,69,71,73,75,77,79,81,83,85,87,89,91,93,95,-1,-1,-1,-1,-1,-1,-1,-1,-1,-1,-1,-1,-1,-1,-1,-1,-1,-1,-1,-1,-1,-1,-1,-1,-1,-1,-1,-1,-1,-1,-1,-1,-1,-1,-1,-1,-1,-1,-1,-1,-1,-1],"loss_changes":[3.898904E4,1.4271719E3,3.2190316E4,1.7012402E2,2.0503516E2,5.5756836E2,1.8019707E4,2.6140312E1,1.2782089E1,2.39375E1,2.8470852E1,1.6691406E2,8.035364E2,1.1710566E4,1.3006678E4,0E0,1.2883148E0,1.5447998E-1,0E0,8.800781E0,2.9310467E1,0E0,0E0,1.5120312E2,5.863623E1,9.545837E0,8.6445786E1,4.9697734E3,5.31522E3,1.7520219E4,1.0242077E4,1.670113E1,0E0,1.0799583E1,0E0,1.1750977E1,4.0742188E0,2.1913456E1,0E0,1.1094531E2,2.2852989E2,1.9513184E1,6.7314453E0,1.6096802E0,1.1169495E1,2.1367859E1,5.4157257E-2,1.1804219E3,1.1930543E3,3.5200417E3,7.240796E2,1.8263535E4,1.6459863E2,3.0167842E3,1.4857549E3,0E0,0E0,0E0,0E0,0E0,0E0,0E0,0E0,0E0,0E0,0E0,0E0,0E0,0E0,0E0,0E0,0E0,0E0,0E0,0E0,0E0,0E0,0E0,0E0,0E0,0E0,0E0,0E0,0E0,0E0,0E0,0E0,0E0,0E0,0E0,0E0,0E0,0E0,0E0,0E0,0E0,0E0],"parents":[2147483647,0,0,1,1,2,2,3,3,4,4,5,5,6,6,7,7,8,8,9,9,10,10,11,11,12,12,13,13,14,14,16,16,17,17,19,19,20,20,23,23,24,24,25,25,26,26,27,27,28,28,29,29,30,30,31,31,33,33,35,35,36,36,37,37,39,39,40,40,41,41,42,42,43,43,44,44,45,45,46,46,47,47,48,48,49,49,50,50,51,51,52,52,53,53,54,54],"right_children":[2,4,6,8,10,12,14,16,18,20,22,24,26,28,30,-1,32,34,-1,36,38,-1,-1,40,42,44,46,48,50,52,54,56,-1,58,-1,60,62,64,-1,66,68,70,72,74,76,78,80,82,84,86,88,90,92,94,96,-1,-1,-1,-1,-1,-1,-1,-1,-1,-1,-1,-1,-1,-1,-1,-1,-1,-1,-1,-1,-1,-1,-1,-1,-1,-1,-1,-1,-1,-1,-1,-1,-1,-1,-1,-1,-1,-1,-1,-1,-1,-1],"split_conditions":[3E0,7E0,2E0,2.3E1,8E0,4E0,1.9E1,-8.696709E18,1E0,5E0,1.01E2,1E0,1E0,1E0,2E0,-1.664083E-1,-8.3296644E17,2.4E1,3.643297E-1,1E0,1E0,-1.862813E-1,3.734706E-1,3.640224E0,1.8E1,1.6E1,6.8E1,5E0,1.8E1,1E0,1E0,-1.9784816E18,4.2590824E-1,1.5E1,-1.851838E-1,1.9E1,2E0,1.8E1,4.1660202E-1,2.6E1,2E0,2.7898982E0,2.5E1,3E1,6E0,3.9077342E0,2.3E1,2E0,9E0,3.3E1,1E0,1E0,3.5E1,4E1,1.1E1,4.2623445E-1,-1.2751909E-1,-1.8190438E-1,4.4568107E-1,3.149457E-1,3.5087377E-1,3.561216E-1,2.8548807E-1,-1.3516551E-1,3.5455084E-1,2.685818E-1,3.2968575E-1,2.6248398E-1,-5.6352664E-2,3.452112E-1,2.735606E-1,3.2797915E-1,3.580258E-1,2.3794213E-1,3.5834312E-1,8.956021E-2,3.4400207E-1,3.5030943E-1,-1.8016455E-1,3.5794234E-1,1.4260015E-1,-1.6451307E-1,2.227241E-1,8.066698E-2,4.587258E-1,2.632662E-1,-9.4564E-2,3.5361505E-1,-1.9451812E-1,4.642628E-2,3.7588707E-1,4.7279558E-1,-1.9476506E-1,-1.3914637E-1,3.8517216E-1,-1.23850785E-1,3.9283842E-1],"split_indices":[9,18,11,0,28,14,9,12,8,5,18,20,3,8,20,0,12,0,0,8,25,0,0,2,18,13,0,23,10,45,8,12,0,10,0,10,5,10,0,0,6,2,0,0,19,7,6,14,23,0,45,8,0,10,10,0,0,0,0,0,0,0,0,0,0,0,0,0,0,0,0,0,0,0,0,0,0,0,0,0,0,0,0,0,0,0,0,0,0,0,0,0,0,0,0,0,0],"split_type":[0,0,0,0,0,0,0,0,0,0,0,0,0,0,0,0,0,0,0,0,0,0,0,0,0,0,0,0,0,0,0,0,0,0,0,0,0,0,0,0,0,0,0,0,0,0,0,0,0,0,0,0,0,0,0,0,0,0,0,0,0,0,0,0,0,0,0,0,0,0,0,0,0,0,0,0,0,0,0,0,0,0,0,0,0,0,0,0,0,0,0,0,0,0,0,0,0],"sum_hessian":[4.9703284E5,2.8757887E4,4.6827497E5,5.9175903E2,2.8166127E4,3.1384482E4,4.3689047E5,7.118151E1,5.205775E2,2.8085574E4,8.05529E1,3.0177486E4,1.2069968E3,1.5532495E5,2.8156553E5,8.444961E0,6.273655E1,5.175913E2,2.9862149E0,2.8022447E4,6.3127514E1,7.228514E1,8.267759E0,2.398683E4,6.1906553E3,5.564275E2,6.5056934E2,1.3592873E5,1.9396223E4,2.0821453E5,7.335099E4,2.5496408E1,3.724014E1,5.1532745E1,4.6605853E2,4.270945E3,2.3751502E4,3.890638E1,2.4221134E1,2.3101576E4,8.852539E2,2.224014E3,3.9666414E3,4.9324216E2,6.3185352E1,6.2171344E2,2.8855902E1,1.3170798E5,4.2207573E3,1.343965E4,5.9565723E3,1.837304E5,2.4484127E4,6.871586E4,4.635131E3,1.957295E1,5.923458E0,4.987416E1,1.6585852E0,1.3100951E3,2.9608496E3,2.3653219E4,9.8283775E1,2.8504892E1,1.0401488E1,1.998778E4,3.1137976E3,5.7337354E2,3.1188034E2,4.4768414E2,1.7763297E3,1.1247697E3,2.8418718E3,1.8397076E1,4.748451E2,3.0782196E1,3.2403156E1,6.0210443E0,6.156924E2,2.6934788E1,1.9211149E0,1.3099647E5,7.115091E2,3.2438425E3,9.769147E2,3.2684434E3,1.0171207E4,5.731746E3,2.2482611E2,1.6707875E5,1.6651652E4,3.237194E1,2.4451756E4,6.771454E4,1.0013172E3,5.707878E2,4.064343E3],"tree_param":{"num_deleted":"0","num_feature":"75","num_nodes":"97","size_leaf_vector":"1"}},{"base_weights":[-3.143914E-3,-2.7226514E-1,9.2671055E-1,-4.3131208E-1,1.2375258E0,-1.2857793E-1,1.0768447E0,-4.9439126E-1,-5.3238623E-2,7.0104593E-1,1.2402847E0,-2.2591051E-1,1.0705236E0,1.1555353E0,2.2391924E-1,-5.010699E-1,9.0152395E-1,3.867103E-1,-4.6564645E-1,-1.82065E-1,9.3678254E-1,1.1989391E0,1.2478201E0,-2.7339298E-1,3.6500767E-1,1.1471962E0,-1.8720123E-1,-4.76296E-1,1.1690232E0,4.736703E-1,-6.175173E-1,-5.1106006E-1,3.2033247E-1,1.2492082E0,-1.8601474E-1,7.357442E-1,-1.7532866E-1,-4.9478486E-1,1.2475659E0,1.1240108E0,-1.7708986E-1,1.1995722E0,-1.3226758E-1,-1.4155456E-1,1.2479595E0,-2.9496557E-1,1.841066E0,1.1639014E0,-1.7510307E-1,5.621392E-1,-3.6752316E-1,-5.841044E-1,7.4021035E-1,1.1720955E0,-2.9492712E-1,8.3510137E-1,-3.5288787E-1,-6.24217E-1,3.2661545E-1,-5.1041104E-2,-1.6074145E-1,-1.6972722E-1,2.9652214E-1,-2.0653898E-1,3.7932634E-1,-1.00763E-1,3.160934E-1,-8.746156E-2,3.7990054E-1,-1.5275833E-1,3.808806E-1,-1.5406728E-1,3.8052925E-1,1.7325407E-1,3.6643276E-1,3.589872E-1,4.1657826E-1,3.8357654E-1,3.738191E-1,-1.06355295E-1,1.13227636E-1,-1.7541853E-1,6.164124E-1,3.5235313E-1,-1.8615189E-1,3.2267293E-1,-1.8544093E-1,-1.8678898E-1,-5.416049E-3,-1.7510119E-1,3.3806524E-1,3.5283384E-1,3.1537175E-2,5.6477755E-1,-2.2270566E-1,3.3562616E-1,7.536146E-2,-1.284314E-1,3.6218414E-1,-1.8848936E-1,3.6844334E-1],"categories":[],"categories_nodes":[],"categories_segments":[],"categories_sizes":[],"default_left":[0,0,0,0,0,0,0,0,0,0,0,0,0,0,0,0,0,0,0,0,0,0,0,0,0,0,0,0,0,0,0,0,0,0,0,0,0,0,0,0,0,0,0,0,0,0,0,0,0,0,0,0,0,0,0,0,0,0,0,0,0,0,0,0,0,0,0,0,0,0,0,0,0,0,0,0,0,0,0,0,0,0,0,0,0,0,0,0,0,0,0,0,0,0,0,0,0,0,0,0,0],"id":7,"left_children":[1,3,5,7,9,11,13,15,17,19,21,23,25,27,29,31,33,35,37,-1,39,41,43,45,-1,47,49,51,53,55,57,59,61,63,-1,65,67,69,71,73,-1,75,-1,-1,77,79,81,83,-1,-1,85,87,89,91,93,95,97,99,-1,-1,-1,-1,-1,-1,-1,-1,-1,-1,-1,-1,-1,-1,-1,-1,-1,-1,-1,-1,-1,-1,-1,-1,-1,-1,-1,-1,-1,-1,-1,-1,-1,-1,-1,-1,-1,-1,-1,-1,-1,-1,-1],"loss_changes":[1.2381017E5,9.213881E4,1.7594828E4,8.278707E3,5.3253906E1,1.6146506E3,6.5250156E3,2.7739844E3,9.006302E3,5.8963516E1,9.839844E0,8.767536E2,1.0037732E2,1.9596406E3,1.7263047E3,2.4298203E3,7.503756E2,4.711615E3,1.2796279E3,0E0,4.665651E1,6.378418E0,7.9570312E0,5.6560876E2,0E0,2.89906E1,2.3188135E1,9.622185E1,3.9739844E2,1.8925287E3,2.2173584E1,2.4677031E3,2.1070537E3,3.487964E1,0E0,5.0478423E3,1.5420118E3,6.411626E2,1.6406555E1,6.9428253E0,0E0,1.4770508E0,0E0,0E0,1.9140625E-1,4.911975E2,6.611148E1,1.909375E1,0E0,0E0,2.1100748E1,1.463205E1,3.132079E1,3.7748438E2,1.8230203E2,7.2966113E2,2.2673804E2,1.4934387E1,0E0,0E0,0E0,0E0,0E0,0E0,0E0,0E0,0E0,0E0,0E0,0E0,0E0,0E0,0E0,0E0,0E0,0E0,0E0,0E0,0E0,0E0,0E0,0E0,0E0,0E0,0E0,0E0,0E0,0E0,0E0,0E0,0E0,0E0,0E0,0E0,0E0,0E0,0E0,0E0,0E0,0E0,0E0],"parents":[2147483647,0,0,1,1,2,2,3,3,4,4,5,5,6,6,7,7,8,8,9,9,10,10,11,11,12,12,13,13,14,14,15,15,16,16,17,17,18,18,20,20,21,21,22,22,23,23,25,25,26,26,27,27,28,28,29,29,30,30,31,31,32,32,33,33,35,35,36,36,37,37,38,38,39,39,41,41,44,44,45,45,46,46,47,47,50,50,51,51,52,52,53,53,54,54,55,55,56,56,57,57],"right_children":[2,4,6,8,10,12,14,16,18,20,22,24,26,28,30,32,34,36,38,-1,40,42,44,46,-1,48,50,52,54,56,58,60,62,64,-1,66,68,70,72,74,-1,76,-1,-1,78,80,82,84,-1,-1,86,88,90,92,94,96,98,100,-1,-1,-1,-1,-1,-1,-1,-1,-1,-1,-1,-1,-1,-1,-1,-1,-1,-1,-1,-1,-1,-1,-1,-1,-1,-1,-1,-1,-1,-1,-1,-1,-1,-1,-1,-1,-1,-1,-1,-1,-1,-1,-1],"split_conditions":[1E0,1E0,8E0,1E0,4E0,4E0,4.474143E0,1E0,1.8E1,3.7E1,1E0,1E0,6E0,4E0,3E1,1E0,6E0,1.4E1,1E0,-1.82065E-1,4E0,1E0,7E0,1E0,3.6500767E-1,2E0,1E0,4E0,4E0,1.7E1,1E0,1E0,1.2E1,2.6E1,-1.8601474E-1,2.9E1,1E0,1E0,3E0,4E1,-1.7708986E-1,2E0,-1.3226758E-1,-1.4155456E-1,2.7E1,3.5883543E0,1.2E1,1E0,-1.7510307E-1,5.621392E-1,1E0,3.8431392E0,4E0,3E0,7E0,6.8E1,1E0,1E0,3.2661545E-1,-5.1041104E-2,-1.6074145E-1,-1.6972722E-1,2.9652214E-1,-2.0653898E-1,3.7932634E-1,-1.00763E-1,3.160934E-1,-8.746156E-2,3.7990054E-1,-1.5275833E-1,3.808806E-1,-1.5406728E-1,3.8052925E-1,1.7325407E-1,3.6643276E-1,3.589872E-1,4.1657826E-1,3.8357654E-1,3.738191E-1,-1.06355295E-1,1.13227636E-1,-1.7541853E-1,6.164124E-1,3.5235313E-1,-1.8615189E-1,3.2267293E-1,-1.8544093E-1,-1.8678898E-1,-5.416049E-3,-1.7510119E-1,3.3806524E-1,3.5283384E-1,3.1537175E-2,5.6477755E-1,-2.2270566E-1,3.3562616E-1,7.536146E-2,-1.284314E-1,3.6218414E-1,-1.8848936E-1,3.6844334E-1],"split_indices":[3,45,6,8,10,14,7,71,10,9,8,45,19,10,10,48,19,9,46,0,6,54,9,59,0,11,2,19,20,4,15,23,9,0,0,0,46,48,9,9,0,14,0,0,18,2,10,20,0,0,9,2,11,4,10,9,45,48,0,0,0,0,0,0,0,0,0,0,0,0,0,0,0,0,0,0,0,0,0,0,0,0,0,0,0,0,0,0,0,0,0,0,0,0,0,0,0,0,0,0,0],"split_type":[0,0,0,0,0,0,0,0,0,0,0,0,0,0,0,0,0,0,0,0,0,0,0,0,0,0,0,0,0,0,0,0,0,0,0,0,0,0,0,0,0,0,0,0,0,0,0,0,0,0,0,0,0,0,0,0,0,0,0,0,0,0,0,0,0,0,0,0,0,0,0,0,0,0,0,0,0,0,0,0,0,0,0,0,0,0,0,0,0,0,0,0,0,0,0,0,0,0,0,0,0],"sum_hessian":[4.9475666E5,3.8370447E5,1.1105218E5,3.4713653E5,3.6567926E4,1.3831456E4,9.722073E4,2.975002E5,4.9636355E4,1.883932E2,3.6379535E4,1.279378E4,1.0376757E3,8.900847E4,8.212252E3,2.9608425E5,1.4159431E3,2.4016291E4,2.5620064E4,2.8529505E1,1.598637E2,5.632934E3,3.07466E4,1.2386884E4,4.0689682E2,9.7813513E2,5.95405E1,7.293832E2,8.8279086E4,6.3329688E3,1.8792836E3,2.925268E5,3.5574236E3,1.1527217E3,2.632215E2,1.481541E4,9.200881E3,2.5192305E4,4.27761E2,1.4263931E2,1.7224379E1,5.6310283E3,1.9057221E0,2.2166023E0,3.0744383E4,1.2262636E4,1.24248085E2,9.6910956E2,9.025617E0,4.034668E0,5.5505833E1,6.704839E2,5.889933E1,8.809441E4,1.8468086E2,4.406234E3,1.9267347E3,1.872565E3,6.718632E0,1.9795842E4,2.7273097E5,1.5292634E3,2.0281603E3,8.63496E0,1.1440867E3,3.3895178E3,1.1425892E4,8.515277E3,6.8560333E2,2.4988934E4,2.0337065E2,4.7320848E0,4.230289E2,2.2630646E1,1.2000867E2,5.5517686E3,7.925959E1,1.7526647E3,2.8991719E4,1.1265362E4,9.9727356E2,9.916329E0,1.1433175E2,9.637216E2,5.387892E0,7.7259464E0,4.777989E1,6.2766504E2,4.2818867E1,1.3199124E1,4.5700203E1,8.776386E4,3.3054407E2,3.0932348E1,1.5374852E2,2.9649622E3,1.4412716E3,1.8388102E3,8.792465E1,1.8691079E3,3.4569733E0],"tree_param":{"num_deleted":"0","num_feature":"75","num_nodes":"101","size_leaf_vector":"1"}},{"base_weights":[-2.4643491E-3,4.949987E-1,-4.982768E-1,-5.800713E-1,5.8522475E-1,-5.700607E-1,-4.9783047E-2,-5.806597E-1,1.0101486E-1,8.670974E-1,4.372146E-1,-5.799325E-1,1.20962635E-1,2.773503E-1,-4.8077318E-1,-5.8110636E-1,1.0607035E-1,-4.1649017E-1,6.4975864E-1,8.8588953E-1,-5.902066E-1,1.865226E-1,6.6191113E-1,-5.810622E-1,3.9674118E-1,6.294448E-1,-3.4547246E-1,-3.131E-2,6.6128546E-1,4.7232166E-1,-5.133568E-1,-1.7815445E-1,-5.5931413E-1,8.058788E-1,-1.555579E-1,-1.9501667E-2,-1.5080383E-1,3.1048375E-1,-1.1900281E-1,-3.0606166E-1,8.976486E-1,-1.8492815E-1,4.0330067E-1,-9.3448944E-2,4.1559285E-1,8.242564E-1,4.593068E-1,-5.8365405E-1,-3.5412607E-1,1.1984667E0,-1.8151566E-1,1.015196E0,-5.698783E-1,-4.4117245E-1,1.6676606E0,7.5363755E-1,-1.5813158E-1,-1.8818755E-1,7.3274994E-1,-4.9634606E-1,1.5596535E0,-2.3136553E-1,-5.8049923E-1,-1.6813006E-1,-5.532399E-3,2.7973467E-1,3.4314793E-2,-1.8884774E-1,2.6697364E-1,2.6059705E-1,2.8323963E-1,9.437615E-2,-6.288608E-2,1.7439611E-1,-2.9012507E-2,2.5054595E-1,-1.2827924E-1,4.541133E-2,2.2430275E-1,-1.7625435E-1,-1.4371578E-1,6.0639757E-1,-1.721338E-1,-1.7175102E-1,4.6462518E-1,3.3253536E-1,-1.9825357E-1,-1.8007207E-1,2.7352598E-1,9.051412E-2,-1.6722977E-1,5.215462E-1,-1.2604277E-1,-5.390741E-2,2.786985E-1,-8.3762854E-2,1.6553591E-1,2.4625552E-1,-2.7869513E-2,-1.6857888E-1,6.827983E-1,5.274251E-1,-1.7376725E-1,1.8062921E-1,-1.8212582E-1,1.0097549E-1,-1.7782405E-1],"categories":[],"categories_nodes":[],"categories_segments":[],"categories_sizes":[],"default_left":[0,0,0,0,0,0,0,0,0,0,0,0,0,0,0,0,0,0,0,0,0,0,0,0,0,0,0,0,0,0,0,0,0,0,0,0,0,0,0,0,0,0,0,0,0,0,0,0,0,0,0,0,0,0,0,0,0,0,0,0,0,0,0,0,0,0,0,0,0,0,0,0,0,0,0,0,0,0,0,0,0,0,0,0,0,0,0,0,0,0,0,0,0,0,0,0,0,0,0,0,0,0,0,0,0,0,0],"id":8,"left_children":[1,3,5,7,9,11,13,15,17,19,21,23,25,27,29,31,33,35,37,39,41,43,45,47,49,51,53,55,57,59,61,-1,63,65,-1,-1,-1,-1,-1,67,69,-1,-1,71,73,75,77,79,81,83,-1,85,87,89,91,93,95,-1,97,99,101,103,105,-1,-1,-1,-1,-1,-1,-1,-1,-1,-1,-1,-1,-1,-1,-1,-1,-1,-1,-1,-1,-1,-1,-1,-1,-1,-1,-1,-1,-1,-1,-1,-1,-1,-1,-1,-1,-1,-1,-1,-1,-1,-1,-1,-1],"loss_changes":[1.1316475E5,2.22155E4,7.3978594E3,7.164551E0,8.814703E3,1.3513203E3,4.4702935E3,5.498047E0,4.859067E0,1.9927695E3,7.804074E3,2.1571094E2,6.621057E2,2.1360747E3,4.2511865E2,4.5839844E0,5.8221927E0,2.3769808E-1,3.7289636E0,1.0069453E3,4.7837524E1,4.1998594E3,2.402709E3,1.1452344E2,1.8242249E2,6.1845245E2,2.8128082E2,9.948993E2,7.40197E2,4.7767462E2,2.5034839E2,0E0,3.9553223E0,4.3795347E-1,0E0,0E0,0E0,0E0,0E0,2.722487E2,9.501953E1,0E0,0E0,1.3969905E3,3.0580093E3,5.5361523E2,2.8860864E3,7.760156E1,1.1517943E3,7.904793E1,0E0,1.5873193E2,1.5197304E1,1.2029733E2,1.0533112E1,2.2768439E2,7.3969763E2,0E0,5.5373413E2,4.495515E1,9.165985E1,7.975971E2,1.2020947E2,0E0,0E0,0E0,0E0,0E0,0E0,0E0,0E0,0E0,0E0,0E0,0E0,0E0,0E0,0E0,0E0,0E0,0E0,0E0,0E0,0E0,0E0,0E0,0E0,0E0,0E0,0E0,0E0,0E0,0E0,0E0,0E0,0E0,0E0,0E0,0E0,0E0,0E0,0E0,0E0,0E0,0E0,0E0,0E0],"parents":[2147483647,0,0,1,1,2,2,3,3,4,4,5,5,6,6,7,7,8,8,9,9,10,10,11,11,12,12,13,13,14,14,15,15,16,16,17,17,18,18,19,19,20,20,21,21,22,22,23,23,24,24,25,25,26,26,27,27,28,28,29,29,30,30,32,32,33,33,39,39,40,40,43,43,44,44,45,45,46,46,47,47,48,48,49,49,51,51,52,52,53,53,54,54,55,55,56,56,58,58,59,59,60,60,61,61,62,62],"right_children":[2,4,6,8,10,12,14,16,18,20,22,24,26,28,30,32,34,36,38,40,42,44,46,48,50,52,54,56,58,60,62,-1,64,66,-1,-1,-1,-1,-1,68,70,-1,-1,72,74,76,78,80,82,84,-1,86,88,90,92,94,96,-1,98,100,102,104,106,-1,-1,-1,-1,-1,-1,-1,-1,-1,-1,-1,-1,-1,-1,-1,-1,-1,-1,-1,-1,-1,-1,-1,-1,-1,-1,-1,-1,-1,-1,-1,-1,-1,-1,-1,-1,-1,-1,-1,-1,-1,-1,-1,-1],"split_conditions":[8E0,2E0,5.7E1,1E0,2E0,2E0,1.6E1,1E0,1.9E1,1E0,4.0943933E0,1E0,1.4E1,6E0,4E0,2E0,4.836633E0,4.6E1,1E0,-1.8861534E17,6E0,8E0,3E0,9E0,1.7E1,1E0,1E0,-5.8650666E18,8.3E1,8E0,2E0,-1.7815445E-1,1E0,3.1395721E0,-1.555579E-1,-1.9501667E-2,-1.5080383E-1,3.1048375E-1,-1.1900281E-1,4E0,3E0,-1.8492815E-1,4.0330067E-1,2E0,3E0,7E0,6.1E1,2E0,1.14E2,4E0,-1.8151566E-1,1E0,1E0,2E0,1.8E1,-6.705936E18,1.1E1,-1.8818755E-1,3E0,3.625E0,3E0,1.5E1,4E0,-1.6813006E-1,-5.532399E-3,2.7973467E-1,3.4314793E-2,-1.8884774E-1,2.6697364E-1,2.6059705E-1,2.8323963E-1,9.437615E-2,-6.288608E-2,1.7439611E-1,-2.9012507E-2,2.5054595E-1,-1.2827924E-1,4.541133E-2,2.2430275E-1,-1.7625435E-1,-1.4371578E-1,6.0639757E-1,-1.721338E-1,-1.7175102E-1,4.6462518E-1,3.3253536E-1,-1.9825357E-1,-1.8007207E-1,2.7352598E-1,9.051412E-2,-1.6722977E-1,5.215462E-1,-1.2604277E-1,-5.390741E-2,2.786985E-1,-8.3762854E-2,1.6553591E-1,2.4625552E-1,-2.7869513E-2,-1.6857888E-1,6.827983E-1,5.274251E-1,-1.7376725E-1,1.8062921E-1,-1.8212582E-1,1.0097549E-1,-1.7782405E-1],"split_indices":[10,11,9,33,19,28,10,24,6,8,7,72,10,20,23,19,7,0,73,12,20,13,19,5,10,3,44,12,0,20,19,0,39,2,0,0,0,0,0,13,6,0,0,23,19,10,0,21,0,11,0,25,8,19,10,12,13,0,19,2,19,13,13,0,0,0,0,0,0,0,0,0,0,0,0,0,0,0,0,0,0,0,0,0,0,0,0,0,0,0,0,0,0,0,0,0,0,0,0,0,0,0,0,0,0,0,0],"split_type":[0,0,0,0,0,0,0,0,0,0,0,0,0,0,0,0,0,0,0,0,0,0,0,0,0,0,0,0,0,0,0,0,0,0,0,0,0,0,0,0,0,0,0,0,0,0,0,0,0,0,0,0,0,0,0,0,0,0,0,0,0,0,0,0,0,0,0,0,0,0,0,0,0,0,0,0,0,0,0,0,0,0,0,0,0,0,0,0,0,0,0,0,0,0,0,0,0,0,0,0,0,0,0,0,0,0,0],"sum_hessian":[4.588081E5,2.2902283E5,2.2978527E5,1.7732268E4,2.1129056E5,1.9808103E5,3.170423E4,1.7717111E4,1.5157782E1,7.274641E4,1.3854416E5,1.952913E5,2.7897295E3,1.802393E4,1.3680301E4,1.7705746E4,1.1364099E1,7.9249725E0,7.2328095E0,7.1820664E4,9.2574396E2,6.5484965E4,7.3059195E4,1.9506608E5,2.2522719E2,1.3345386E3,1.4551908E3,9.99194E3,8.0319893E3,4.5178372E2,1.3228518E4,1.1156413E4,6.5493335E3,5.222492E0,6.141606E0,1.9060823E0,6.01889E0,5.2948E0,1.9380096E0,7.013738E2,7.111929E4,9.1403656E2,1.1707381E1,2.9468686E4,3.601628E4,4.0557617E4,3.2501574E4,1.9286184E5,2.2042285E3,1.24996994E2,1.00230194E2,1.0098751E3,3.2466348E2,1.3898988E3,6.529193E1,1.3891311E3,8.602809E3,4.2163855E2,7.6103506E3,2.3921689E2,2.1256683E2,2.5448528E3,1.0683664E4,6.535771E3,1.3562233E1,4.1199365E0,1.1025561E0,5.524474E2,1.4892635E2,4.381284E4,2.7306451E4,6.530272E3,2.2938412E4,2.7212883E4,8.803398E3,4.0207965E4,3.4965424E2,1.5718283E4,1.6783291E4,1.8599298E5,6.8688613E3,1.8587471E2,2.0183538E3,2.0536072E1,1.0446092E2,9.5696796E2,5.2907192E1,3.1872693E2,5.9365444E0,1.878659E2,1.202033E3,6.3311466E1,1.9804645E0,2.1971063E2,1.1694205E3,7.3498794E3,1.2529296E3,6.8765825E3,7.33768E2,2.3446754E2,4.7493443E0,1.946835E2,1.7883343E1,7.905559E2,1.7542968E3,1.4044965E2,1.0543215E4],"tree_param":{"num_deleted":"0","num_feature":"75","num_nodes":"107","size_leaf_vector":"1"}},{"base_weights":[-1.1076212E-2,-2.2439986E-1,6.840925E-1,-5.9491915E-1,-5.7291016E-3,-5.966681E-1,7.701946E-1,-5.904989E-1,-6.0761654E-1,3.3605596E-1,-3.6509004E-1,-1.7621179E-1,-6.0601395E-1,7.955041E-1,-1.8280452E-1,-5.933762E-1,-1.7591733E-1,-6.127738E-1,-1.7642628E-1,5.617604E-1,-5.9166807E-1,-4.951809E-1,3.9274797E-2,-1.8497264E-1,-1.7622556E-1,8.148522E-1,-3.9189222E-1,-5.877954E-1,-5.9970087E-1,-1.7576468E-1,-6.1436826E-1,6.206112E-1,-1.9295046E-1,-5.94647E-1,-1.7409743E-1,-5.441076E-1,-3.2066938E-2,4.559084E-1,-2.5693357E-1,8.901755E-1,6.256052E-1,3.1515536E-1,-5.721456E-1,-1.779092E-1,-1.7471647E-1,-1.820353E-1,-1.7844787E-1,-1.8499862E-1,-1.8162073E-1,1.9713958E-1,-1.8973751E-1,-1.5749748E-1,2.2210572E-2,-1.753009E-1,-1.8022966E-1,-1.6997917E-1,3.6648374E-2,3.1796074E-1,-7.077759E-2,-7.317833E-2,2.0033443E-1,-9.678754E-2,3.1178668E-1,2.677153E-1,-1.9043376E-1,2.316119E-1,1.307921E-1,-1.9427693E-1,1.8515357E-1,-6.406436E-2,-1.9214492E-1],"categories":[],"categories_nodes":[],"categories_segments":[],"categories_sizes":[],"default_left":[0,0,0,0,0,0,0,0,0,0,0,0,0,0,0,0,0,0,0,0,0,0,0,0,0,0,0,0,0,0,0,0,0,0,0,0,0,0,0,0,0,0,0,0,0,0,0,0,0,0,0,0,0,0,0,0,0,0,0,0,0,0,0,0,0,0,0,0,0,0,0],"id":9,"left_children":[1,3,5,7,9,11,13,15,17,19,21,-1,23,25,-1,27,-1,29,-1,31,33,35,37,-1,-1,39,41,43,45,-1,47,49,51,53,-1,55,57,59,61,63,65,67,69,-1,-1,-1,-1,-1,-1,-1,-1,-1,-1,-1,-1,-1,-1,-1,-1,-1,-1,-1,-1,-1,-1,-1,-1,-1,-1,-1,-1],"loss_changes":[6.7462234E4,2.8203426E4,1.178007E4,6.890625E0,2.6887088E4,2.2851562E-1,3.495211E3,7.890625E-1,2.9960938E0,2.3493479E4,5.6134014E3,0E0,2.9077148E-1,2.258379E3,0E0,1.6347656E0,0E0,7.685547E-1,0E0,4.0082852E3,3.9697266E-1,1.8293457E3,3.205696E3,0E0,0E0,1.3780508E3,2.0110907E2,5.019531E-1,5.488281E-1,0E0,1.3867188E-1,3.8314785E3,5.7880756E2,7.4316406E-1,0E0,1.0942285E3,1.7177383E3,1.6006255E3,1.2931115E3,2.3357812E2,7.6433984E2,9.371384E1,3.0657959E1,0E0,0E0,0E0,0E0,0E0,0E0,0E0,0E0,0E0,0E0,0E0,0E0,0E0,0E0,0E0,0E0,0E0,0E0,0E0,0E0,0E0,0E0,0E0,0E0,0E0,0E0,0E0,0E0],"parents":[2147483647,0,0,1,1,2,2,3,3,4,4,5,5,6,6,7,7,8,8,9,9,10,10,12,12,13,13,15,15,17,17,19,19,20,20,21,21,22,22,25,25,26,26,27,27,28,28,30,30,31,31,32,32,33,33,35,35,36,36,37,37,38,38,39,39,40,40,41,41,42,42],"right_children":[2,4,6,8,10,12,14,16,18,20,22,-1,24,26,-1,28,-1,30,-1,32,34,36,38,-1,-1,40,42,44,46,-1,48,50,52,54,-1,56,58,60,62,64,66,68,70,-1,-1,-1,-1,-1,-1,-1,-1,-1,-1,-1,-1,-1,-1,-1,-1,-1,-1,-1,-1,-1,-1,-1,-1,-1,-1,-1,-1],"split_conditions":[1E0,7E0,7E0,3E0,5E0,3E0,1E0,4.042433E0,6.4E1,1E0,4E0,-1.7621179E-1,6.4E1,1E0,-1.8280452E-1,2E0,-1.7591733E-1,2E0,-1.7642628E-1,7E0,1E0,4E0,7.06592E18,-1.8497264E-1,-1.7622556E-1,1.1E1,4E0,2E0,2.8E1,-1.7576468E-1,2E0,1E0,2E0,3E0,-1.7409743E-1,4E0,6.6E1,-4.97719E18,1E0,4E0,3.7777644E18,3E0,4.2107644E0,-1.779092E-1,-1.7471647E-1,-1.820353E-1,-1.7844787E-1,-1.8499862E-1,-1.8162073E-1,1.9713958E-1,-1.8973751E-1,-1.5749748E-1,2.2210572E-2,-1.753009E-1,-1.8022966E-1,-1.6997917E-1,3.6648374E-2,3.1796074E-1,-7.077759E-2,-7.317833E-2,2.0033443E-1,-9.678754E-2,3.1178668E-1,2.677153E-1,-1.9043376E-1,2.316119E-1,1.307921E-1,-1.9427693E-1,1.8515357E-1,-6.406436E-2,-1.9214492E-1],"split_indices":[68,10,10,19,6,19,8,7,0,8,11,0,0,34,0,23,0,11,0,23,45,4,12,0,0,9,23,11,9,0,14,45,6,9,0,20,0,12,51,23,12,4,7,0,0,0,0,0,0,0,0,0,0,0,0,0,0,0,0,0,0,0,0,0,0,0,0,0,0,0,0],"split_type":[0,0,0,0,0,0,0,0,0,0,0,0,0,0,0,0,0,0,0,0,0,0,0,0,0,0,0,0,0,0,0,0,0,0,0,0,0,0,0,0,0,0,0,0,0,0,0,0,0,0,0,0,0,0,0,0,0,0,0,0,0,0,0,0,0,0,0,0,0,0,0],"sum_hessian":[4.5491428E5,3.480961E5,1.0681819E5,1.2919102E5,2.1890508E5,6.7283716E3,1.0008982E5,9.586576E4,3.332527E4,1.1219626E5,1.0670882E5,3.4052722E3,3.3230996E3,9.828704E4,1.8027777E3,5.629242E4,3.9573332E4,2.6339258E4,6.9860103E3,9.024186E4,2.1954398E4,8.073486E4,2.597396E4,2.0988625E3,1.2242369E3,9.6711484E4,1.5755586E3,2.9954521E4,2.63379E4,1.494986E3,2.4844273E4,8.371418E4,6.5276772E3,1.734735E4,4.6070493E3,7.302029E4,7.7145713E3,1.0792777E4,1.5181184E4,6.917502E4,2.7536459E4,3.199194E2,1.2556392E3,1.5164021E4,1.4790501E4,1.0686228E4,1.5651673E4,1.9729176E4,5.115096E3,8.134388E4,2.3702927E3,2.908949E3,3.6187283E3,6.4964023E3,1.0850947E4,7.063615E4,2.3841404E3,1.2130194E3,6.5015522E3,2.5081091E3,8.284668E3,1.4449638E4,7.315455E2,6.907538E4,9.963825E1,1.5536236E4,1.2000224E4,7.612265E1,2.4379675E2,2.0164444E2,1.0539948E3],"tree_param":{"num_deleted":"0","num_feature":"75","num_nodes":"71","size_leaf_vector":"1"}},{"base_weights":[1.7381182E-2,8.7306833E-1,-3.9322816E-2,8.9217585E-1,-4.9174285E-1,2.1006145E-1,-2.3492306E-1,8.9518857E-1,-4.754844E-1,-1.7543201E-1,2.799936E-1,3.8473132E-1,-2.0283902E-1,-3.7769803E-1,2.1492536E-1,3.4156471E-1,8.969518E-1,-1.782129E-1,2.7022547E-1,2.3700449E-1,8.9618134E-1,-4.4579622E-1,2.1078926E-1,-4.225472E-1,1.3765389E0,6.0736483E-1,-6.115645E-1,1.0315759E0,-4.6226606E-1,8.9784044E-1,4.134244E-1,6.779154E-1,6.495702E-2,9.474467E-1,2.1884048E-2,7.1441424E-1,-4.651163E-1,6.2948024E-1,-1.9837971E-1,-4.3243366E-1,1.5274324E0,9.357847E-1,1.622905E0,-1.4388444E-1,7.57267E-1,-6.118589E-1,3.3449835E-1,2.1131913E-1,3.538127E-1,-1.7171909E-1,3.7231204E-1,2.694343E-1,-1.6810368E-1,3.8046068E-1,-5.31297E-3,1.83515E-1,2.2028302E-1,-1.09008364E-1,1.0027046E-1,2.8936553E-1,-6.63445E-2,7.602656E-2,-1.2874228E-1,5.8068477E-2,2.7408966E-1,-1.441193E-1,2.3610105E-1,2.0899704E-1,-6.7922235E-2,-1.3944124E-2,-1.76543E-1,-1.3421676E-1,1.7888847E-1,5.172976E-1,-1.6323489E-1,3.2486063E-1,-1.6867551E-1,4.570433E-1,5.8363247E-1,3.2119447E-1,-1.3628575E-1,2.39186E-2,2.5846943E-1,-2.2081305E-1,-1.833901E-1],"categories":[],"categories_nodes":[],"categories_segments":[],"categories_sizes":[],"default_left":[0,0,0,0,0,0,0,0,0,0,0,0,0,0,0,0,0,0,0,0,0,0,0,0,0,0,0,0,0,0,0,0,0,0,0,0,0,0,0,0,0,0,0,0,0,0,0,0,0,0,0,0,0,0,0,0,0,0,0,0,0,0,0,0,0,0,0,0,0,0,0,0,0,0,0,0,0,0,0,0,0,0,0,0,0],"id":10,"left_children":[1,3,5,7,9,11,13,15,17,-1,-1,19,21,23,25,27,29,-1,-1,31,33,35,37,39,41,43,45,47,49,51,53,55,57,59,61,63,65,67,69,71,73,75,77,79,81,83,-1,-1,-1,-1,-1,-1,-1,-1,-1,-1,-1,-1,-1,-1,-1,-1,-1,-1,-1,-1,-1,-1,-1,-1,-1,-1,-1,-1,-1,-1,-1,-1,-1,-1,-1,-1,-1,-1,-1],"loss_changes":[2.2731062E4,7.597168E2,2.1432102E4,1.18740234E2,5.3924866E1,1.39289E4,1.5815059E4,2.7660156E1,1.0939385E1,0E0,0E0,1.0253949E4,5.7698057E3,1.4706127E4,1.924185E4,5.182316E1,1.1900391E1,0E0,0E0,7.9880586E3,1.3632207E3,8.110747E2,3.6398013E3,3.5142246E3,5.0446875E2,4.5299697E3,1.0391113E1,1.5930557E0,8.861148E0,1.1884766E1,2.0014053E1,1.0983008E2,8.736628E3,5.7450195E2,1.7614188E2,6.1336487E1,6.811172E2,6.0390674E2,6.3671277E2,2.7901445E3,3.7601562E2,3.6925732E2,9.284717E1,2.5233284E3,2.3696094E3,8.75E-1,0E0,0E0,0E0,0E0,0E0,0E0,0E0,0E0,0E0,0E0,0E0,0E0,0E0,0E0,0E0,0E0,0E0,0E0,0E0,0E0,0E0,0E0,0E0,0E0,0E0,0E0,0E0,0E0,0E0,0E0,0E0,0E0,0E0,0E0,0E0,0E0,0E0,0E0,0E0],"parents":[2147483647,0,0,1,1,2,2,3,3,4,4,5,5,6,6,7,7,8,8,11,11,12,12,13,13,14,14,15,15,16,16,19,19,20,20,21,21,22,22,23,23,24,24,25,25,26,26,27,27,28,28,29,29,30,30,31,31,32,32,33,33,34,34,35,35,36,36,37,37,38,38,39,39,40,40,41,41,42,42,43,43,44,44,45,45],"right_children":[2,4,6,8,10,12,14,16,18,-1,-1,20,22,24,26,28,30,-1,-1,32,34,36,38,40,42,44,46,48,50,52,54,56,58,60,62,64,66,68,70,72,74,76,78,80,82,84,-1,-1,-1,-1,-1,-1,-1,-1,-1,-1,-1,-1,-1,-1,-1,-1,-1,-1,-1,-1,-1,-1,-1,-1,-1,-1,-1,-1,-1,-1,-1,-1,-1,-1,-1,-1,-1,-1,-1],"split_conditions":[3E0,1E0,8E0,1.2E1,7E0,4.1872916E0,1E0,5E0,1.01E2,-1.7543201E-1,2.799936E-1,3E0,3E0,1E0,1E0,2.3E1,4E0,-1.782129E-1,2.7022547E-1,2E0,1E0,2E0,6.1E1,1E0,1.7E1,3.4E1,1.3E1,-8.3296644E17,1.5E1,1E0,7.6363545E18,1.6E1,2E0,1E0,4E0,2E0,1E0,1E0,1E0,2E0,1E0,7E0,2E0,3E0,1E1,3.3E1,3.3449835E-1,2.1131913E-1,3.538127E-1,-1.7171909E-1,3.7231204E-1,2.694343E-1,-1.6810368E-1,3.8046068E-1,-5.31297E-3,1.83515E-1,2.2028302E-1,-1.09008364E-1,1.0027046E-1,2.8936553E-1,-6.63445E-2,7.602656E-2,-1.2874228E-1,5.8068477E-2,2.7408966E-1,-1.441193E-1,2.3610105E-1,2.0899704E-1,-6.7922235E-2,-1.3944124E-2,-1.76543E-1,-1.3421676E-1,1.7888847E-1,5.172976E-1,-1.6323489E-1,3.2486063E-1,-1.6867551E-1,4.570433E-1,5.8363247E-1,3.2119447E-1,-1.3628575E-1,2.39186E-2,2.5846943E-1,-2.2081305E-1,-1.833901E-1],"split_indices":[9,15,10,28,18,7,8,18,18,0,0,19,19,34,45,0,28,0,0,11,68,11,0,32,9,0,4,12,10,48,12,18,19,34,11,19,8,3,34,14,39,28,20,11,9,0,0,0,0,0,0,0,0,0,0,0,0,0,0,0,0,0,0,0,0,0,0,0,0,0,0,0,0,0,0,0,0,0,0,0,0,0,0,0,0],"split_type":[0,0,0,0,0,0,0,0,0,0,0,0,0,0,0,0,0,0,0,0,0,0,0,0,0,0,0,0,0,0,0,0,0,0,0,0,0,0,0,0,0,0,0,0,0,0,0,0,0,0,0,0,0,0,0,0,0,0,0,0,0,0,0,0,0,0,0,0,0,0,0,0,0,0,0,0,0,0,0,0,0,0,0,0,0],"sum_hessian":[4.684783E5,2.9114463E4,4.3936384E5,2.8712826E4,4.016373E2,1.9312956E5,2.462343E5,2.8650059E4,6.2765675E1,3.7757788E2,2.4059418E1,1.3571706E5,5.741251E4,1.869116E5,5.9322703E4,9.157385E1,2.8558486E4,5.8310738E1,4.4549384E0,1.0530291E5,3.0414148E4,3.6168035E4,2.1244477E4,1.8225284E5,4.6587534E3,4.0223688E4,1.9099016E4,4.912309E1,4.245076E1,2.8505238E4,5.3247746E1,2.9555992E4,7.5746914E4,2.872948E4,1.6846675E3,5.9182385E2,3.557621E4,1.0499796E4,1.0744682E4,1.8133425E5,9.185928E2,1.6721105E3,2.986643E3,6.69102E3,3.3532664E4,1.9096404E4,2.6104283E0,1.7079874E1,3.2043213E1,4.0496334E1,1.9544265E0,2.850027E4,4.9675155E0,1.7201693E1,3.6046055E1,1.3597271E4,1.595872E4,2.9238797E4,4.6508117E4,2.83152E4,4.1428223E2,1.1134869E3,5.711806E2,1.6428209E2,4.2754175E2,3.5147867E4,4.2834262E2,9.73584E3,7.639562E2,7.734194E3,3.0104878E3,1.7873636E5,2.5978782E3,8.3901514E2,7.957763E1,1.5228658E3,1.4924467E2,2.2872751E3,6.993679E2,1.3614631E3,5.329557E3,4.473527E3,2.9059139E4,7.96231E1,1.9016781E4],"tree_param":{"num_deleted":"0","num_feature":"75","num_nodes":"85","size_leaf_vector":"1"}},{"base_weights":[-4.3690093E-3,-2.4104366E-1,7.215209E-1,-3.8728386E-1,9.3111825E-1,-9.926656E-2,8.2837564E-1,-4.8085958E-1,-1.2945615E-1,5.6243277E-1,9.329885E-1,-1.8093604E-1,8.2272345E-1,8.539887E-1,-5.614369E-1,-1.1819965E-1,-5.1366395E-1,8.833768E-2,-3.932848E-1,-1.7016192E-1,7.165354E-1,9.6754396E-1,9.277881E-1,-3.4570664E-1,1.3197826E-1,8.6737037E-1,-3.0137864E-1,8.7618583E-1,-3.118166E-1,-6.115154E-1,3.491408E-1,2.2887254E-2,-2.8355864E-1,-9.981051E-2,-5.43126E-1,-1.4093558E-1,3.8411793E-1,-4.100894E-1,1.2448739E0,8.4888667E-1,-1.7066741E-1,9.681849E-1,-1.4800902E-1,9.279073E-1,-2.0422745E-1,-4.4923508E-1,1.5266019E-1,9.661869E-1,-4.341459E-2,-1.8045735E-1,8.854502E-1,4.306493E-1,-1.7483905E-1,-4.4357058E-1,8.893423E-1,-5.46885E-1,1.1676014E-1,-6.157945E-1,3.0362397E-1,5.605327E-1,-1.804515E-1,-1.4843917E-1,1.2552303E-2,-6.592031E-2,-1.4770351E-1,-5.5380385E-2,3.2039246E-1,-1.6499291E-1,2.3251796E-1,-4.7946982E-2,6.1701876E-1,2.1854068E-1,-7.5068675E-2,-1.2701878E-1,4.576341E-1,7.394546E-1,3.1792006E-1,1.1329722E-1,2.8752297E-1,2.9174045E-1,2.7563876E-1,2.7839828E-1,-1.2601809E-1,-1.4043097E-1,2.8215274E-1,1.2530492E-1,-1.740291E-1,7.158279E-3,4.6761307E-1,-3.1421665E-2,4.0359786E-1,2.6780763E-1,-1.5127037E-1,-1.7174478E-1,6.1430376E-2,2.6792178E-1,-1.2364048E-1,1.1056256E-1,-1.7249112E-1,-1.8165348E-1,2.1289511E-1,-2.4773194E-1,-1.7970617E-1,-1.844353E-1,2.1449004E-1],"categories":[],"categories_nodes":[],"categories_segments":[],"categories_sizes":[],"default_left":[0,0,0,0,0,0,0,0,0,0,0,0,0,0,0,0,0,0,0,0,0,0,0,0,0,0,0,0,0,0,0,0,0,0,0,0,0,0,0,0,0,0,0,0,0,0,0,0,0,0,0,0,0,0,0,0,0,0,0,0,0,0,0,0,0,0,0,0,0,0,0,0,0,0,0,0,0,0,0,0,0,0,0,0,0,0,0,0,0,0,0,0,0,0,0,0,0,0,0,0,0,0,0,0,0],"id":11,"left_children":[1,3,5,7,9,11,13,15,17,19,21,23,25,27,29,31,33,35,37,-1,39,41,43,45,47,49,51,53,55,57,59,61,63,65,67,69,71,73,75,77,-1,79,-1,81,-1,83,85,87,89,-1,91,-1,-1,93,95,97,99,101,-1,103,-1,-1,-1,-1,-1,-1,-1,-1,-1,-1,-1,-1,-1,-1,-1,-1,-1,-1,-1,-1,-1,-1,-1,-1,-1,-1,-1,-1,-1,-1,-1,-1,-1,-1,-1,-1,-1,-1,-1,-1,-1,-1,-1,-1,-1],"loss_changes":[7.759631E4,5.8387062E4,9.740215E3,7.306164E3,2.553125E1,9.634678E2,3.4984062E3,2.6432852E3,4.6337812E3,3.404086E1,5.8554688E0,6.060271E2,5.25166E1,2.4970703E3,8.132501E1,4.300307E2,2.4843633E3,2.9958386E3,1.00441064E3,0E0,2.9483002E1,5.0600586E0,6.9023438E0,3.9731738E2,5.933176E2,2.7134644E1,2.0640575E1,1.6444062E3,1.8175862E2,1.2339233E1,1.9099003E1,9.762147E1,1.1297632E2,1.3411559E3,1.7180938E3,1.0333438E3,4.213963E3,9.303579E2,8.108087E1,7.6350555E0,0E0,1.4111328E-1,0E0,4.2226562E0,0E0,1.6761218E2,2.5756644E2,3.933E2,2.8555304E2,0E0,1.0412537E1,0E0,0E0,7.8282486E1,4.555E2,3.0160889E1,2.743427E2,5.4316406E0,0E0,1.4396761E1,0E0,0E0,0E0,0E0,0E0,0E0,0E0,0E0,0E0,0E0,0E0,0E0,0E0,0E0,0E0,0E0,0E0,0E0,0E0,0E0,0E0,0E0,0E0,0E0,0E0,0E0,0E0,0E0,0E0,0E0,0E0,0E0,0E0,0E0,0E0,0E0,0E0,0E0,0E0,0E0,0E0,0E0,0E0,0E0,0E0],"parents":[2147483647,0,0,1,1,2,2,3,3,4,4,5,5,6,6,7,7,8,8,9,9,10,10,11,11,12,12,13,13,14,14,15,15,16,16,17,17,18,18,20,20,21,21,22,22,23,23,24,24,25,25,26,26,27,27,28,28,29,29,30,30,31,31,32,32,33,33,34,34,35,35,36,36,37,37,38,38,39,39,41,41,43,43,45,45,46,46,47,47,48,48,50,50,53,53,54,54,55,55,56,56,57,57,59,59],"right_children":[2,4,6,8,10,12,14,16,18,20,22,24,26,28,30,32,34,36,38,-1,40,42,44,46,48,50,52,54,56,58,60,62,64,66,68,70,72,74,76,78,-1,80,-1,82,-1,84,86,88,90,-1,92,-1,-1,94,96,98,100,102,-1,104,-1,-1,-1,-1,-1,-1,-1,-1,-1,-1,-1,-1,-1,-1,-1,-1,-1,-1,-1,-1,-1,-1,-1,-1,-1,-1,-1,-1,-1,-1,-1,-1,-1,-1,-1,-1,-1,-1,-1,-1,-1,-1,-1,-1,-1],"split_conditions":[1E0,1E0,8E0,7.811094E18,4E0,4E0,2.6E1,1E0,1.8E1,3.7E1,3E0,1.09152395E18,2E0,1.7E1,2.5E1,1.9E1,-4.97719E18,1E0,1E0,-1.7016192E-1,4E0,1E0,1E0,1.4E1,1.9717473E0,2.950212E0,1E0,4E0,7.6363545E18,1E0,6.9E1,5E0,3E1,-5.38542E18,1E0,1E0,1.4E1,9E0,1E0,1.921928E0,-1.7066741E-1,6E0,-1.4800902E-1,1E0,-2.0422745E-1,1E0,3.3E1,5.4E1,1E0,-1.8045735E-1,6.8E1,4.306493E-1,-1.7483905E-1,4E0,1.1E1,9E0,5E0,4.47888E0,3.0362397E-1,3E0,-1.804515E-1,-1.4843917E-1,1.2552303E-2,-6.592031E-2,-1.4770351E-1,-5.5380385E-2,3.2039246E-1,-1.6499291E-1,2.3251796E-1,-4.7946982E-2,6.1701876E-1,2.1854068E-1,-7.5068675E-2,-1.2701878E-1,4.576341E-1,7.394546E-1,3.1792006E-1,1.1329722E-1,2.8752297E-1,2.9174045E-1,2.7563876E-1,2.7839828E-1,-1.2601809E-1,-1.4043097E-1,2.8215274E-1,1.2530492E-1,-1.740291E-1,7.158279E-3,4.6761307E-1,-3.1421665E-2,4.0359786E-1,2.6780763E-1,-1.5127037E-1,-1.7174478E-1,6.1430376E-2,2.6792178E-1,-1.2364048E-1,1.1056256E-1,-1.7249112E-1,-1.8165348E-1,2.1289511E-1,-2.4773194E-1,-1.7970617E-1,-1.844353E-1,2.1449004E-1],"split_indices":[3,45,6,12,10,14,10,23,10,9,6,12,11,4,13,0,12,8,46,0,6,34,48,13,2,2,2,10,12,48,0,13,0,12,71,62,9,28,8,2,0,11,0,54,0,45,9,0,59,0,9,0,0,19,20,9,23,7,0,9,0,0,0,0,0,0,0,0,0,0,0,0,0,0,0,0,0,0,0,0,0,0,0,0,0,0,0,0,0,0,0,0,0,0,0,0,0,0,0,0,0,0,0,0,0],"split_type":[0,0,0,0,0,0,0,0,0,0,0,0,0,0,0,0,0,0,0,0,0,0,0,0,0,0,0,0,0,0,0,0,0,0,0,0,0,0,0,0,0,0,0,0,0,0,0,0,0,0,0,0,0,0,0,0,0,0,0,0,0,0,0,0,0,0,0,0,0,0,0,0,0,0,0,0,0,0,0,0,0,0,0,0,0,0,0,0,0,0,0,0,0,0,0,0,0,0,0,0,0,0,0,0,0],"sum_hessian":[4.5166528E5,3.4061066E5,1.1105462E5,3.0282994E5,3.778073E4,1.2792345E4,9.826227E4,2.221883E5,8.064165E4,1.9221214E2,3.7588516E4,1.1752148E4,1.0401964E3,9.648452E4,1.7777441E3,1.8431252E4,2.0375705E5,4.4175164E4,3.646648E4,2.2751688E1,1.6946046E2,4.892721E3,3.2695797E4,7.6983438E3,4.0538052E3,1.00068E3,3.951645E1,9.4682016E4,1.8025143E3,1.6853826E3,9.236164E1,9.946016E3,8.485236E3,1.3541655E4,1.9021539E5,2.4885646E4,1.9289518E4,3.609694E4,3.6954147E2,1.5394902E2,1.5511435E1,4.8909126E3,1.8084679E0,3.2693797E4,1.9991313E0,6.374279E3,1.324065E3,7.034634E2,3.3503418E3,1.1774689E1,9.889053E2,4.938113E0,3.4578335E1,9.342302E2,9.374778E4,1.1638711E3,6.386432E2,1.6815714E3,3.8111107E0,7.589541E1,1.6466238E1,3.5040085E2,9.595615E3,6.500223E3,1.9850131E3,1.2625764E4,9.1589185E2,1.8923256E5,9.8282465E2,2.467451E4,2.1113625E2,1.250248E4,6.787037E3,3.585125E4,2.4569084E2,4.706897E1,3.224725E2,2.9871885E1,1.2407714E2,4.4834023E3,4.0751028E2,3.2691998E4,1.7981774E0,6.2895503E3,8.472817E1,9.7269244E2,3.5137247E2,2.7197125E2,4.3149213E2,3.2095388E3,1.4080287E2,9.841344E2,4.770869E0,7.793797E2,1.5485051E2,9.3480164E4,2.6761792E2,3.4283955E1,1.1295872E3,2.8789813E2,3.5074506E2,1.2082573E2,1.5607457E3,8.468119E0,6.742729E1],"tree_param":{"num_deleted":"0","num_feature":"75","num_nodes":"105","size_leaf_vector":"1"}},{"base_weights":[-3.2261554E-3,3.9740786E-1,-4.703881E-1,-5.559791E-1,4.6483728E-1,-5.452827E-1,-5.3392384E-2,-1.7159654E-1,-5.2870315E-1,7.0130825E-1,3.452541E-1,-5.562495E-1,1.23560265E-1,2.2051808E-1,-4.4842082E-1,-5.299067E-1,2.73295E-1,7.2324896E-1,-5.8165973E-1,7.2296426E-2,4.8934028E-1,-5.575171E-1,3.5726854E-1,5.558412E-1,-3.0307123E-1,-4.741797E-2,4.965858E-1,4.0936872E-1,-4.8221332E-1,-5.3148276E-1,4.2378597E-2,-2.80284E-1,7.3308504E-1,-1.8027374E-1,3.2648358E-1,4.181719E-1,-1.546959E-1,6.363213E-1,3.0662355E-1,-5.60507E-1,-3.049205E-1,9.51418E-1,-1.7459174E-1,8.3326346E-1,-5.366441E-1,-3.9786702E-1,1.225734E0,1.2954132E-1,-5.314993E-1,-1.8183424E-1,5.6109416E-1,-4.638795E-1,1.1653478E0,-1.9732797E-1,-5.548851E-1,-1.598396E-1,6.46232E-3,-1.1910077E-1,1.415739E-1,-1.7699857E-1,1.8725805E-1,-1.8911712E-1,2.2031213E-1,2.0192279E-1,-4.4571977E-2,-7.283076E-2,2.4436955E-1,2.3039018E-1,1.4836128E-1,4.319864E-2,2.0443548E-1,-1.6953374E-1,-1.3193275E-1,4.0863323E-1,-1.6326421E-1,-1.6341142E-1,3.508257E-1,2.691053E-1,-1.8366337E-1,-1.7172448E-1,2.440585E-1,9.973238E-2,-1.5843794E-1,3.7974343E-1,-1.1252552E-1,9.9948935E-2,-1.6480446E-1,1.4502664E-1,-1.7090102E-1,1.9349658E-1,-3.8840573E-2,-1.7793286E-1,1.952474E-1,3.849539E-1,-1.6552752E-1,1.4422287E-1,-1.7294714E-1,9.3649596E-2,-1.7059086E-1],"categories":[],"categories_nodes":[],"categories_segments":[],"categories_sizes":[],"default_left":[0,0,0,0,0,0,0,0,0,0,0,0,0,0,0,0,0,0,0,0,0,0,0,0,0,0,0,0,0,0,0,0,0,0,0,0,0,0,0,0,0,0,0,0,0,0,0,0,0,0,0,0,0,0,0,0,0,0,0,0,0,0,0,0,0,0,0,0,0,0,0,0,0,0,0,0,0,0,0,0,0,0,0,0,0,0,0,0,0,0,0,0,0,0,0,0,0,0,0],"id":12,"left_children":[1,3,5,7,9,11,13,-1,15,17,19,21,23,25,27,29,-1,31,33,35,37,39,41,43,45,47,49,51,53,55,57,59,61,-1,-1,63,65,67,69,71,73,75,-1,77,79,81,83,85,87,-1,89,91,93,95,97,-1,-1,-1,-1,-1,-1,-1,-1,-1,-1,-1,-1,-1,-1,-1,-1,-1,-1,-1,-1,-1,-1,-1,-1,-1,-1,-1,-1,-1,-1,-1,-1,-1,-1,-1,-1,-1,-1,-1,-1,-1,-1,-1,-1],"loss_changes":[7.7168195E4,1.4269191E4,5.944746E3,6.0996094E0,5.8617305E3,1.1836992E3,3.136193E3,0E0,9.9021E0,1.9602148E3,5.41475E3,1.8405078E2,4.804119E2,1.266094E3,3.4422046E2,4.921875E0,0E0,6.758789E2,3.8308044E1,3.73468E3,2.4198086E3,1.1957031E2,1.2366528E2,3.9256976E2,1.9051465E2,7.442217E2,6.0001807E2,2.9785406E2,2.3629663E2,3.9538574E0,3.1777465E0,1.8669089E2,1.1957031E2,0E0,0E0,2.723067E3,2.4519482E3,9.3172266E2,2.448796E3,8.6875E1,7.4147644E2,4.4834114E1,0E0,9.566931E1,1.3149208E1,1.17699844E2,5.4021378E0,8.796889E2,9.037329E1,0E0,4.615266E2,3.0592632E1,4.9606354E1,5.973597E2,1.0864575E2,0E0,0E0,0E0,0E0,0E0,0E0,0E0,0E0,0E0,0E0,0E0,0E0,0E0,0E0,0E0,0E0,0E0,0E0,0E0,0E0,0E0,0E0,0E0,0E0,0E0,0E0,0E0,0E0,0E0,0E0,0E0,0E0,0E0,0E0,0E0,0E0,0E0,0E0,0E0,0E0,0E0,0E0,0E0,0E0],"parents":[2147483647,0,0,1,1,2,2,3,3,4,4,5,5,6,6,8,8,9,9,10,10,11,11,12,12,13,13,14,14,15,15,17,17,18,18,19,19,20,20,21,21,22,22,23,23,24,24,25,25,26,26,27,27,28,28,29,29,30,30,31,31,32,32,35,35,36,36,37,37,38,38,39,39,40,40,41,41,43,43,44,44,45,45,46,46,47,47,48,48,50,50,51,51,52,52,53,53,54,54],"right_children":[2,4,6,8,10,12,14,-1,16,18,20,22,24,26,28,30,-1,32,34,36,38,40,42,44,46,48,50,52,54,56,58,60,62,-1,-1,64,66,68,70,72,74,76,-1,78,80,82,84,86,88,-1,90,92,94,96,98,-1,-1,-1,-1,-1,-1,-1,-1,-1,-1,-1,-1,-1,-1,-1,-1,-1,-1,-1,-1,-1,-1,-1,-1,-1,-1,-1,-1,-1,-1,-1,-1,-1,-1,-1,-1,-1,-1,-1,-1,-1,-1,-1,-1],"split_conditions":[9E0,2E0,5.7E1,2E0,2E0,2E0,1.6E1,-1.7159654E-1,7E0,1E0,3.6E1,1E0,1.4E1,5E0,4E0,1E0,2.73295E-1,-1.8861534E17,6E0,2E0,3E0,9E0,1.7E1,1E0,1E0,1E0,8.3E1,8E0,2E0,1E0,1.9E1,4E0,7E0,-1.8027374E-1,3.2648358E-1,3E0,1E0,3E0,7.2E1,2E0,1.14E2,4E0,-1.7459174E-1,1E0,1E0,-5.8650666E18,1.8E1,1E0,4.338684E0,-1.8183424E-1,3E0,3.2406015E0,3E0,1.5E1,4E0,-1.598396E-1,6.46232E-3,-1.1910077E-1,1.415739E-1,-1.7699857E-1,1.8725805E-1,-1.8911712E-1,2.2031213E-1,2.0192279E-1,-4.4571977E-2,-7.283076E-2,2.4436955E-1,2.3039018E-1,1.4836128E-1,4.319864E-2,2.0443548E-1,-1.6953374E-1,-1.3193275E-1,4.0863323E-1,-1.6326421E-1,-1.6341142E-1,3.508257E-1,2.691053E-1,-1.8366337E-1,-1.7172448E-1,2.440585E-1,9.973238E-2,-1.5843794E-1,3.7974343E-1,-1.1252552E-1,9.9948935E-2,-1.6480446E-1,1.4502664E-1,-1.7090102E-1,1.9349658E-1,-3.8840573E-2,-1.7793286E-1,1.952474E-1,3.849539E-1,-1.6552752E-1,1.4422287E-1,-1.7294714E-1,9.3649596E-2,-1.7059086E-1],"split_indices":[10,11,9,19,19,28,10,0,4,8,0,72,10,20,23,33,0,12,20,23,19,5,10,3,44,8,0,20,19,39,6,13,9,0,0,19,21,23,0,21,0,11,0,25,8,12,10,3,7,0,19,2,19,13,13,0,0,0,0,0,0,0,0,0,0,0,0,0,0,0,0,0,0,0,0,0,0,0,0,0,0,0,0,0,0,0,0,0,0,0,0,0,0,0,0,0,0,0,0],"split_type":[0,0,0,0,0,0,0,0,0,0,0,0,0,0,0,0,0,0,0,0,0,0,0,0,0,0,0,0,0,0,0,0,0,0,0,0,0,0,0,0,0,0,0,0,0,0,0,0,0,0,0,0,0,0,0,0,0,0,0,0,0,0,0,0,0,0,0,0,0,0,0,0,0,0,0,0,0,0,0,0,0,0,0,0,0,0,0,0,0,0,0,0,0,0,0,0,0,0,0],"sum_hessian":[4.123072E5,2.2195806E5,1.9034914E5,1.4660834E4,2.0729723E5,1.6136655E5,2.8982586E4,9.225831E3,5.435003E3,6.962055E4,1.3767669E5,1.5876355E5,2.6030085E3,1.7115346E4,1.1867241E4,5.431094E3,3.9084797E0,6.8450375E4,1.1701691E3,4.7567E4,9.010968E4,1.5854394E5,2.1961052E2,1.2927933E3,1.3102153E3,8.686011E3,8.429334E3,4.4936755E2,1.1417873E4,5.4162495E3,1.4844892E1,6.6413654E2,6.778624E4,1.1574648E3,1.27042675E1,1.8847547E4,2.8719455E4,4.9936926E4,4.0172758E4,1.5668803E5,1.855899E3,1.3450914E2,8.510139E1,1.0311768E3,2.616165E2,1.2344135E3,7.580185E1,6.3613193E3,2.324692E3,4.65402E2,7.963932E3,2.086907E2,2.4067686E2,2.3213835E3,9.09649E3,5.4034287E3,1.282052E1,7.3757725E0,7.469119E0,4.9498978E2,1.6914674E2,6.354651E1,6.7722695E4,1.3000257E4,5.84729E3,2.6327883E4,2.3915713E3,2.5891918E4,2.4045008E4,2.8017904E4,1.2154854E4,1.5092706E5,5.760969E3,2.3237477E2,1.6235243E3,1.6916172E1,1.17592964E2,9.879804E2,4.3196407E1,2.554254E2,6.19108E0,1.8661143E2,1.047802E3,7.4154625E1,1.6472275E0,4.893964E3,1.4673551E3,8.38387E1,2.2408533E3,7.101284E3,8.626478E2,1.8742952E2,2.1261179E1,2.2545815E2,1.5218729E1,8.324369E2,1.4889467E3,1.4167572E2,8.954814E3],"tree_param":{"num_deleted":"0","num_feature":"75","num_nodes":"99","size_leaf_vector":"1"}},{"base_weights":[-1.6766133E-2,-5.7305664E-1,1.9582736E-1,-5.694682E-1,-5.8262134E-1,3.3420393E-1,-5.741171E-1,-5.7280767E-1,-1.6944674E-1,-5.870177E-1,-1.7008829E-1,5.0935733E-1,-4.1172376E-1,-5.6985897E-1,-5.9214914E-1,-5.666208E-1,-5.794979E-1,-5.8991265E-1,-1.7302391E-1,5.613054E-1,-4.3714024E-2,2.1035427E-1,-5.262523E-1,-5.7458943E-1,-1.6810454E-1,-1.7616628E-1,-1.812222E-1,-1.7139933E-1,-1.6851126E-1,-1.7617702E-1,-1.7220551E-1,-1.7563085E-1,-1.782695E-1,3.5589287E-1,6.8694144E-1,1.8289861E-1,-3.0271953E-1,2.9407778E-1,-6.986765E-1,-5.5287355E-1,2.5251497E-2,-1.6898087E-1,-5.821778E-1,6.637436E-2,1.7990983E-1,2.1257932E-1,-1.3042256E-1,-1.8079418E-1,1.0876543E-1,-1.2827727E-1,6.481561E-2,-1.5702236E-1,1.1081892E-1,-2.3694906E-1,2.1747822E-1,-1.6861016E-1,7.1547434E-2,2.186149E-1,-1.0056778E-1,-1.7423844E-1,-1.8562196E-1],"categories":[],"categories_nodes":[],"categories_segments":[],"categories_sizes":[],"default_left":[0,0,0,0,0,0,0,0,0,0,0,0,0,0,0,0,0,0,0,0,0,0,0,0,0,0,0,0,0,0,0,0,0,0,0,0,0,0,0,0,0,0,0,0,0,0,0,0,0,0,0,0,0,0,0,0,0,0,0,0,0],"id":13,"left_children":[1,3,5,7,9,11,13,15,-1,17,-1,19,21,23,25,27,29,31,-1,33,35,37,39,41,-1,-1,-1,-1,-1,-1,-1,-1,-1,43,45,47,49,51,53,55,57,-1,59,-1,-1,-1,-1,-1,-1,-1,-1,-1,-1,-1,-1,-1,-1,-1,-1,-1,-1],"loss_changes":[4.78956E4,3.5078125E0,3.121832E4,9.394531E-1,1.7685547E0,3.2450705E4,3.0898438E0,1.6308594E0,0E0,3.671875E-1,0E0,5.7790703E3,3.3651523E3,1.3037109E0,1.4453125E-1,2.4951172E-1,6.274414E-1,9.765625E-3,0E0,4.745004E3,1.0137848E3,5.591625E2,5.856416E2,1.7421875E0,0E0,0E0,0E0,0E0,0E0,0E0,0E0,0E0,0E0,2.2906758E3,2.7717305E3,1.300322E3,5.22221E2,4.1430444E2,8.098602E1,2.759756E2,4.662559E2,0E0,3.6816406E-1,0E0,0E0,0E0,0E0,0E0,0E0,0E0,0E0,0E0,0E0,0E0,0E0,0E0,0E0,0E0,0E0,0E0,0E0],"parents":[2147483647,0,0,1,1,2,2,3,3,4,4,5,5,6,6,7,7,9,9,11,11,12,12,13,13,14,14,15,15,16,16,17,17,19,19,20,20,21,21,22,22,23,23,33,33,34,34,35,35,36,36,37,37,38,38,39,39,40,40,42,42],"right_children":[2,4,6,8,10,12,14,16,-1,18,-1,20,22,24,26,28,30,32,-1,34,36,38,40,42,-1,-1,-1,-1,-1,-1,-1,-1,-1,44,46,48,50,52,54,56,58,-1,60,-1,-1,-1,-1,-1,-1,-1,-1,-1,-1,-1,-1,-1,-1,-1,-1,-1,-1],"split_conditions":[7E0,3E0,1E0,4.042433E0,6.4E1,1E0,5E0,2E0,-1.6944674E-1,2E0,-1.7008829E-1,7E0,9E0,1E0,1.22E2,2E0,2.8E1,4.1E1,-1.7302391E-1,3E0,7.811094E18,2.4E1,4E0,3E0,-1.6810454E-1,-1.7616628E-1,-1.812222E-1,-1.7139933E-1,-1.6851126E-1,-1.7617702E-1,-1.7220551E-1,-1.7563085E-1,-1.782695E-1,4E0,2E0,-4.97719E18,1.6E1,8E0,3E0,6E0,3E0,-1.6898087E-1,4E0,6.637436E-2,1.7990983E-1,2.1257932E-1,-1.3042256E-1,-1.8079418E-1,1.0876543E-1,-1.2827727E-1,6.481561E-2,-1.5702236E-1,1.1081892E-1,-2.3694906E-1,2.1747822E-1,-1.6861016E-1,7.1547434E-2,2.186149E-1,-1.0056778E-1,-1.7423844E-1,-1.8562196E-1],"split_indices":[10,19,8,7,0,3,23,23,0,14,0,23,6,45,0,11,9,0,0,19,12,10,4,9,0,0,0,0,0,0,0,0,0,4,14,12,13,9,5,11,19,0,20,0,0,0,0,0,0,0,0,0,0,0,0,0,0,0,0,0,0],"split_type":[0,0,0,0,0,0,0,0,0,0,0,0,0,0,0,0,0,0,0,0,0,0,0,0,0,0,0,0,0,0,0,0,0,0,0,0,0,0,0,0,0,0,0,0,0,0,0,0,0,0,0,0,0,0,0,0,0,0,0,0,0],"sum_hessian":[4.0498775E5,1.119771E5,2.9301066E5,8.1471445E4,3.0505662E4,2.4837294E5,4.463771E4,4.732834E4,3.41431E4,2.3790412E4,6.71525E3,2.0114242E5,4.723051E4,3.613679E4,8.500921E3,2.4633785E4,2.2694555E4,1.8515514E4,5.274897E3,1.8387197E5,1.7270455E4,7.343332E3,3.988718E4,2.4093467E4,1.2043323E4,6.050637E3,2.4502842E3,1.252226E4,1.2111525E4,9.349583E3,1.3344972E4,9.15906E3,9.356455E3,6.978259E4,1.14089375E5,9.211392E3,8.0590635E3,6.724655E3,6.186774E2,3.805047E4,1.8367074E3,9.699537E3,1.439393E4,4.4956664E4,2.4825934E4,1.1192874E5,2.1606338E3,1.7140817E3,7.49731E3,6.4956885E3,1.5633748E3,5.668022E2,6.1578525E3,5.8186566E2,3.6811768E1,3.7615348E4,4.3512106E2,6.2195416E2,1.2147533E3,1.3885568E4,5.083617E2],"tree_param":{"num_deleted":"0","num_feature":"75","num_nodes":"61","size_leaf_vector":"1"}},{"base_weights":[2.319082E-2,7.425512E-1,-2.4481503E-2,7.5724906E-1,-4.6528363E-1,1.900683E-1,-1.9457713E-1,7.5958294E-1,-4.3469307E-1,-1.6841581E-1,2.3613478E-1,3.5236225E-1,4.5542624E-2,-2.7952367E-1,1.564624E-1,3.7576187E-1,7.607957E-1,-1.6951472E-1,2.351033E-1,2.3393449E-1,5.3474224E-1,-7.880122E-2,2.6713213E-1,2.610874E-1,-3.4007353E-1,5.284997E-1,-5.7964E-1,9.195251E-1,-4.1672668E-1,7.617959E-1,3.5655063E-1,5.2870256E-1,-7.506804E-2,6.1500907E-1,-2.5171676E-1,6.9798864E-2,-2.3043938E-1,3.6380407E-1,-3.4249726E-1,8.795046E-1,-8.580868E-2,-4.9432918E-1,-2.106866E-1,3.1338784E-1,7.818415E-1,-5.798691E-1,2.26533E-1,1.9590937E-1,3.117532E-1,-1.6400899E-1,3.2516485E-1,2.0368788E-1,2.2932474E-1,-3.3346426E-2,2.9179072E-1,1.3024083E-1,1.7214131E-1,-8.252909E-2,1.3162006E-1,5.19253E-2,2.2155839E-1,-1.0171204E-1,1.1859585E-1,-7.754916E-2,1.817669E-1,-7.9646274E-2,2.7768606E-1,1.6921744E-1,6.5965325E-2,-1.0825036E-1,4.3822405E-1,-9.3984894E-2,3.3502892E-1,-1.7027481E-1,2.6350783E-2,-1.554179E-1,2.1734926E-1,-6.8046354E-2,3.7462687E-1,1.3169457E-1,-1.599349E-1,2.4833386E-1,-2.1365763E-1,-1.7400664E-1,-1.12524495E-1],"categories":[],"categories_nodes":[],"categories_segments":[],"categories_sizes":[],"default_left":[0,0,0,0,0,0,0,0,0,0,0,0,0,0,0,0,0,0,0,0,0,0,0,0,0,0,0,0,0,0,0,0,0,0,0,0,0,0,0,0,0,0,0,0,0,0,0,0,0,0,0,0,0,0,0,0,0,0,0,0,0,0,0,0,0,0,0,0,0,0,0,0,0,0,0,0,0,0,0,0,0,0,0,0,0],"id":14,"left_children":[1,3,5,7,9,11,13,15,17,-1,-1,19,21,23,25,27,29,-1,-1,31,33,35,37,39,41,43,45,47,49,51,53,55,57,59,61,63,65,67,69,71,73,75,77,79,81,83,-1,-1,-1,-1,-1,-1,-1,-1,-1,-1,-1,-1,-1,-1,-1,-1,-1,-1,-1,-1,-1,-1,-1,-1,-1,-1,-1,-1,-1,-1,-1,-1,-1,-1,-1,-1,-1,-1,-1],"loss_changes":[1.4808053E4,4.767832E2,1.4778851E4,7.409082E1,3.9349968E1,4.200469E3,6.735833E3,1.2033203E1,8.773538E0,0E0,0E0,1.8218564E3,2.6100784E3,5.953543E3,1.2053188E4,3.7154438E1,1.0393555E1,0E0,0E0,4.6586787E3,2.09658E3,1.367324E3,2.006802E3,3.9300312E3,3.264254E3,1.5930225E3,4.9575195E0,9.4501114E-1,7.499089E0,5.1914062E0,1.9408901E1,1.11395996E2,2.566545E3,1.6448037E3,1.7394656E2,5.3939727E3,1.2171069E3,8.4690015E2,1.5464679E2,1.863416E3,9.819298E2,2.1582637E3,2.0948254E3,1.6813662E3,9.219424E2,2.4560547E-1,0E0,0E0,0E0,0E0,0E0,0E0,0E0,0E0,0E0,0E0,0E0,0E0,0E0,0E0,0E0,0E0,0E0,0E0,0E0,0E0,0E0,0E0,0E0,0E0,0E0,0E0,0E0,0E0,0E0,0E0,0E0,0E0,0E0,0E0,0E0,0E0,0E0,0E0,0E0],"parents":[2147483647,0,0,1,1,2,2,3,3,4,4,5,5,6,6,7,7,8,8,11,11,12,12,13,13,14,14,15,15,16,16,19,19,20,20,21,21,22,22,23,23,24,24,25,25,26,26,27,27,28,28,29,29,30,30,31,31,32,32,33,33,34,34,35,35,36,36,37,37,38,38,39,39,40,40,41,41,42,42,43,43,44,44,45,45],"right_children":[2,4,6,8,10,12,14,16,18,-1,-1,20,22,24,26,28,30,-1,-1,32,34,36,38,40,42,44,46,48,50,52,54,56,58,60,62,64,66,68,70,72,74,76,78,80,82,84,-1,-1,-1,-1,-1,-1,-1,-1,-1,-1,-1,-1,-1,-1,-1,-1,-1,-1,-1,-1,-1,-1,-1,-1,-1,-1,-1,-1,-1,-1,-1,-1,-1,-1,-1,-1,-1,-1,-1],"split_conditions":[3E0,1E0,2E0,1.2E1,7E0,3.9555047E0,1E0,5E0,1.01E2,-1.6841581E-1,2.3613478E-1,3E0,4E0,5E0,1E0,2.3E1,5E0,-1.6951472E-1,2.351033E-1,2E0,1E0,9E0,3E0,2E1,2E1,7.2E1,1.53E2,-8.3296644E17,1.5E1,-5.8650666E18,1E0,1.4E1,3E0,2E0,3E0,3E0,1E0,4.2E1,1E0,2E0,2E0,6E0,1E0,5.1E1,1E0,4.1E1,2.26533E-1,1.9590937E-1,3.117532E-1,-1.6400899E-1,3.2516485E-1,2.0368788E-1,2.2932474E-1,-3.3346426E-2,2.9179072E-1,1.3024083E-1,1.7214131E-1,-8.252909E-2,1.3162006E-1,5.19253E-2,2.2155839E-1,-1.0171204E-1,1.1859585E-1,-7.754916E-2,1.817669E-1,-7.9646274E-2,2.7768606E-1,1.6921744E-1,6.5965325E-2,-1.0825036E-1,4.3822405E-1,-9.3984894E-2,3.3502892E-1,-1.7027481E-1,2.6350783E-2,-1.554179E-1,2.1734926E-1,-6.8046354E-2,3.7462687E-1,1.3169457E-1,-1.599349E-1,2.4833386E-1,-2.1365763E-1,-1.7400664E-1,-1.12524495E-1],"split_indices":[9,15,6,28,18,7,8,18,18,0,0,11,11,13,45,0,5,0,0,11,21,10,20,18,9,18,0,12,10,12,25,18,19,19,19,19,34,18,70,19,19,23,36,4,46,10,0,0,0,0,0,0,0,0,0,0,0,0,0,0,0,0,0,0,0,0,0,0,0,0,0,0,0,0,0,0,0,0,0,0,0,0,0,0,0],"split_type":[0,0,0,0,0,0,0,0,0,0,0,0,0,0,0,0,0,0,0,0,0,0,0,0,0,0,0,0,0,0,0,0,0,0,0,0,0,0,0,0,0,0,0,0,0,0,0,0,0,0,0,0,0,0,0,0,0,0,0,0,0,0,0,0,0,0,0,0,0,0,0,0,0,0,0,0,0,0,0,0,0,0,0,0,0],"sum_hessian":[4.3180097E5,2.6836223E4,4.0496475E5,2.6513953E4,3.222681E2,1.7908106E5,2.2588369E5,2.64625E4,5.1453243E1,2.9981375E2,2.245434E1,8.435446E4,9.472659E4,1.8187319E5,4.4010504E4,8.433075E1,2.637817E4,4.696463E1,4.488615E0,5.114557E4,3.3208895E4,6.067805E4,3.404854E4,1.8318209E4,1.6355497E5,2.923498E4,1.4775521E4,4.9918823E1,3.4411926E1,2.6312188E4,6.598258E1,2.6175322E4,2.4970248E4,3.0133643E4,3.075252E3,3.0646295E4,3.0031758E4,2.938864E4,4.659898E3,6.582301E3,1.1735909E4,7.460624E4,8.894873E4,1.5811615E4,1.3423366E4,1.4773551E4,1.9704682E0,1.7468983E1,3.244984E1,3.225404E1,2.1578848E0,8.146618E2,2.5497525E4,3.797396E1,2.8008621E1,8.455986E3,1.7719336E4,1.7973441E4,6.996805E3,6.583098E3,2.3550545E4,2.7099902E3,3.6526166E2,1.9007086E4,1.163921E4,2.9148824E4,8.82933E2,1.2287934E4,1.7100707E4,4.6137803E3,4.611779E1,1.0920137E3,5.490287E3,3.1086753E3,8.627234E3,7.318197E4,1.4242722E3,8.797696E4,9.7176685E2,1.376919E4,2.0424248E3,1.3023374E4,3.9999158E2,1.4760689E4,1.2861393E1],"tree_param":{"num_deleted":"0","num_feature":"75","num_nodes":"85","size_leaf_vector":"1"}},{"base_weights":[-4.7349823E-3,-2.1439351E-1,6.061992E-1,-3.452025E-1,7.7419466E-1,-7.341185E-2,6.945902E-1,-4.3993753E-1,-1.01453446E-1,5.321244E-1,7.754858E-1,-1.730083E-1,5.193005E-1,7.1534806E-1,-5.3595966E-1,-7.1380675E-2,-4.768762E-1,8.6439975E-2,-3.4783727E-1,-1.6291776E-1,6.557523E-1,7.7556217E-1,-1.2834747E-1,-2.1089423E-1,8.9776736E-1,8.0081916E-1,-6.8299405E-2,7.405575E-1,-3.7116513E-2,-5.8546084E-1,2.667722E-1,4.9709268E-2,-2.2493881E-1,-5.962106E-2,-5.100221E-1,-1.02058135E-1,3.2255766E-1,-3.6348674E-1,1.3816679E0,7.5968385E-1,-1.7076766E-1,7.756336E-1,-1.3336201E-1,-2.791734E-1,2.7432883E-1,8.6771053E-1,3.586384E-1,8.30247E-1,-1.8049315E-1,-1.5995365E-1,6.0792184E-1,-3.8624448E-1,7.5058895E-1,6.23516E-1,-2.5032225E-1,-5.9020215E-1,2.6337644E-1,4.3298927E-1,-1.724866E-1,-1.7810404E-1,1.9004826E-2,-4.5123376E-2,-1.2677407E-1,-4.70633E-2,2.7455476E-1,-1.5409642E-1,8.0696005E-1,-1.0719232E-1,1.620009E-2,1.743391E-1,-5.684478E-2,-1.12274624E-1,6.207627E-1,-1.7619412E-1,5.5478644E-1,1.223266E-1,2.6522344E-1,2.3957987E-1,2.3140486E-1,-9.495173E-2,1.8080565E-1,-1.7826885E-1,2.9726565E-1,2.688955E-1,2.3457511E-1,2.190625E-2,2.6324064E-1,1.6045878E-2,-1.9028173E-1,-1.6094977E-1,9.636669E-2,1.4812061E-1,2.2882263E-1,2.8808495E-1,7.393925E-2,-1.2830217E-1,2.2547229E-1,-2.2118968E-1,-1.7317313E-1,1.881546E-1,-5.3240187E-2],"categories":[],"categories_nodes":[],"categories_segments":[],"categories_sizes":[],"default_left":[0,0,0,0,0,0,0,0,0,0,0,0,0,0,0,0,0,0,0,0,0,0,0,0,0,0,0,0,0,0,0,0,0,0,0,0,0,0,0,0,0,0,0,0,0,0,0,0,0,0,0,0,0,0,0,0,0,0,0,0,0,0,0,0,0,0,0,0,0,0,0,0,0,0,0,0,0,0,0,0,0,0,0,0,0,0,0,0,0,0,0,0,0,0,0,0,0,0,0,0,0],"id":15,"left_children":[1,3,5,7,9,11,13,15,17,19,21,23,25,27,29,31,33,35,37,-1,39,41,-1,43,45,47,49,51,53,55,57,59,61,63,65,67,69,71,73,75,-1,77,-1,79,81,83,-1,85,-1,87,-1,89,91,93,95,97,-1,99,-1,-1,-1,-1,-1,-1,-1,-1,-1,-1,-1,-1,-1,-1,-1,-1,-1,-1,-1,-1,-1,-1,-1,-1,-1,-1,-1,-1,-1,-1,-1,-1,-1,-1,-1,-1,-1,-1,-1,-1,-1,-1,-1],"loss_changes":[5.1224098E4,3.85026E4,6.137961E3,6.071791E3,1.04609375E1,6.9434503E2,2.3099688E3,2.5778125E3,3.4070156E3,2.5316082E1,3.5117188E0,4.0868204E2,2.7997095E2,1.6867227E3,5.978015E1,3.2076816E2,2.3801992E3,1.8584171E3,8.6232056E2,0E0,2.1931458E1,3.359375E0,0E0,3.223118E2,2.043335E0,4.7719116E1,1.05731865E2,9.7278125E2,4.062775E2,1.0326569E1,1.2538867E1,8.468649E1,1.1196585E2,1.201007E3,1.8546836E3,9.249279E2,2.4542715E3,8.2695166E2,2.6418054E2,6.4727325E0,0E0,2.7871094E0,0E0,2.8091187E2,7.476297E2,7.562256E-2,0E0,4.0020996E1,0E0,5.3380768E1,0E0,8.094292E1,2.6582422E2,8.9129364E1,3.8778076E2,2.2614746E0,0E0,8.875022E0,0E0,0E0,0E0,0E0,0E0,0E0,0E0,0E0,0E0,0E0,0E0,0E0,0E0,0E0,0E0,0E0,0E0,0E0,0E0,0E0,0E0,0E0,0E0,0E0,0E0,0E0,0E0,0E0,0E0,0E0,0E0,0E0,0E0,0E0,0E0,0E0,0E0,0E0,0E0,0E0,0E0,0E0,0E0],"parents":[2147483647,0,0,1,1,2,2,3,3,4,4,5,5,6,6,7,7,8,8,9,9,10,10,11,11,12,12,13,13,14,14,15,15,16,16,17,17,18,18,20,20,21,21,23,23,24,24,25,25,26,26,27,27,28,28,29,29,30,30,31,31,32,32,33,33,34,34,35,35,36,36,37,37,38,38,39,39,41,41,43,43,44,44,45,45,47,47,49,49,51,51,52,52,53,53,54,54,55,55,57,57],"right_children":[2,4,6,8,10,12,14,16,18,20,22,24,26,28,30,32,34,36,38,-1,40,42,-1,44,46,48,50,52,54,56,58,60,62,64,66,68,70,72,74,76,-1,78,-1,80,82,84,-1,86,-1,88,-1,90,92,94,96,98,-1,100,-1,-1,-1,-1,-1,-1,-1,-1,-1,-1,-1,-1,-1,-1,-1,-1,-1,-1,-1,-1,-1,-1,-1,-1,-1,-1,-1,-1,-1,-1,-1,-1,-1,-1,-1,-1,-1,-1,-1,-1,-1,-1,-1],"split_conditions":[1E0,1E0,8E0,7.811094E18,4E0,3.5883543E0,2.6E1,1E0,1.8E1,3.7E1,1E0,1E0,1E0,5.7E1,2.5E1,1.9E1,-4.97719E18,1E0,1E0,-1.6291776E-1,6.7E1,1E0,-1.2834747E-1,3E0,3E0,3E1,2E0,4E0,2.321928E0,1E0,6.9E1,4E0,1E0,6E0,1E0,4E0,1.4E1,1E0,6.3E1,4.030639E0,-1.7076766E-1,1E0,-1.3336201E-1,4E0,4E0,5E0,3.586384E-1,1.8E1,-1.8049315E-1,3E1,6.0792184E-1,1.4E1,3E0,-1.8861534E17,1.7E1,4.47888E0,2.6337644E-1,3.8431392E0,-1.724866E-1,-1.7810404E-1,1.9004826E-2,-4.5123376E-2,-1.2677407E-1,-4.70633E-2,2.7455476E-1,-1.5409642E-1,8.0696005E-1,-1.0719232E-1,1.620009E-2,1.743391E-1,-5.684478E-2,-1.12274624E-1,6.207627E-1,-1.7619412E-1,5.5478644E-1,1.223266E-1,2.6522344E-1,2.3957987E-1,2.3140486E-1,-9.495173E-2,1.8080565E-1,-1.7826885E-1,2.9726565E-1,2.688955E-1,2.3457511E-1,2.190625E-2,2.6324064E-1,1.6045878E-2,-1.9028173E-1,-1.6094977E-1,9.636669E-2,1.4812061E-1,2.2882263E-1,2.8808495E-1,7.393925E-2,-1.2830217E-1,2.2547229E-1,-2.2118968E-1,-1.7317313E-1,1.881546E-1,-5.3240187E-2],"split_indices":[3,45,6,12,10,2,10,23,10,9,59,45,20,18,13,0,12,8,62,0,0,34,0,5,4,13,21,10,2,48,0,13,20,11,47,23,9,59,0,7,0,8,0,14,23,6,0,18,0,9,0,13,19,12,28,7,0,2,0,0,0,0,0,0,0,0,0,0,0,0,0,0,0,0,0,0,0,0,0,0,0,0,0,0,0,0,0,0,0,0,0,0,0,0,0,0,0,0,0,0,0],"split_type":[0,0,0,0,0,0,0,0,0,0,0,0,0,0,0,0,0,0,0,0,0,0,0,0,0,0,0,0,0,0,0,0,0,0,0,0,0,0,0,0,0,0,0,0,0,0,0,0,0,0,0,0,0,0,0,0,0,0,0,0,0,0,0,0,0,0,0,0,0,0,0,0,0,0,0,0,0,0,0,0,0,0,0,0,0,0,0,0,0,0,0,0,0,0,0,0,0,0,0,0,0],"sum_hessian":[3.9991266E5,2.9773688E5,1.0217579E5,2.6294494E5,3.4791953E4,1.1759649E4,9.041614E4,1.8935123E5,7.35937E4,1.8677814E2,3.4605176E4,1.0068497E4,1.6911521E3,8.891664E4,1.4994966E3,1.7249242E4,1.7210198E5,4.175318E4,3.1840518E4,1.89117E1,1.6786644E2,3.4603336E4,1.8391668E0,9.725205E3,3.4329196E2,1.143121E3,5.4803107E2,8.60343E4,2.882348E3,1.4126547E3,8.684191E1,9.64458E3,7.604663E3,1.2665525E4,1.5943647E5,2.3218164E4,1.8535018E4,3.1555773E4,2.847436E2,1.5508806E2,1.277839E1,3.4601676E4,1.6623311E0,8.525892E3,1.199314E3,3.153657E2,2.792625E1,1.1200275E3,2.3093517E1,5.25942E2,2.208906E1,7.5883453E2,8.527546E4,7.027877E2,2.17956E3,1.4086873E3,3.9674194E0,7.292659E1,1.3915317E1,1.9934178E2,9.445238E3,5.5235703E3,2.0810928E3,1.151728E4,1.1482452E3,1.5925652E5,1.7995436E2,8.808943E3,1.440922E4,1.231566E4,6.2193584E3,3.1417633E4,1.3814227E2,5.4597424E1,2.3014615E2,4.161929E1,1.13468765E2,5.4107334E3,2.9190941E4,8.180233E3,3.4565823E2,5.4223114E2,6.570828E2,2.2941893E2,8.594677E1,6.58959E1,1.0541316E3,3.6333237E2,1.6260965E2,6.2610205E2,1.327325E2,3.854457E3,8.1421E4,3.704079E2,3.3237982E2,1.8522546E3,3.273054E2,1.09524994E2,1.2991624E3,5.5305824E1,1.7620768E1],"tree_param":{"num_deleted":"0","num_feature":"75","num_nodes":"101","size_leaf_vector":"1"}},{"base_weights":[-3.623452E-3,3.1422633E-1,-4.6647283E-1,-5.3914267E-1,3.6569095E-1,-5.332867E-1,-1.0427821E-1,-1.6708718E-1,-5.094985E-1,5.8485025E-1,2.608165E-1,-5.429427E-1,7.652135E-2,1.020835E-1,-5.062626E-1,-5.1074034E-1,2.2771166E-1,6.359049E-1,1.4270286E-1,-2.206278E-3,3.5639462E-1,-5.4440445E-1,3.358527E-1,5.9866035E-1,-2.6492333E-1,-2.865165E-1,3.0747736E-1,2.8983927E-1,-5.319544E-1,-5.114819E-1,6.5449333E-1,5.769632E-1,6.6795355E-1,-5.96211E-1,6.1682755E-1,3.5279712E-1,-2.2324596E-1,4.701187E-1,2.0017089E-1,-5.495581E-1,-4.146401E-1,8.1468225E-1,-1.6887034E-1,-6.680703E-1,7.487453E-1,-3.5645506E-1,1.0018381E0,-4.40979E-1,2.3373581E-1,3.8934296E-1,-6.099557E-1,9.6094143E-1,-1.7237689E-1,7.857399E-1,-5.453398E-1,-1.5389895E-1,1.8070478E-2,3.874247E-2,2.671846E-1,2.0406653E-1,1.2358787E-1,2.0682105E-1,1.8933354E-1,-1.900187E-1,-1.7046657E-1,2.5272486E-1,-6.4569354E-2,1.5871355E-1,-1.8237608E-2,-1.2920122E-1,6.4613987E-3,1.5434466E-1,-3.237875E-2,6.1157793E-3,1.3675165E-1,-1.6653405E-1,-1.5856972E-1,4.624939E-1,-1.427711E-1,-1.5722477E-1,2.925636E-1,-2.1239083E-1,-1.8477736E-2,2.5099584E-1,-1.703367E-1,9.594233E-2,-1.4828336E-1,3.09409E-1,-1.0482486E-1,-1.5698892E-1,1.1779468E-1,2.2681122E-1,-1.453523E-1,-1.8675171E-1,1.3309215E-1,-1.927272E-1,-1.7013086E-1,2.9508552E-1,-1.4888397E-1,3.590507E-1,-1.7576988E-1,-1.14112444E-1,-1.6920501E-1],"categories":[],"categories_nodes":[],"categories_segments":[],"categories_sizes":[],"default_left":[0,0,0,0,0,0,0,0,0,0,0,0,0,0,0,0,0,0,0,0,0,0,0,0,0,0,0,0,0,0,0,0,0,0,0,0,0,0,0,0,0,0,0,0,0,0,0,0,0,0,0,0,0,0,0,0,0,0,0,0,0,0,0,0,0,0,0,0,0,0,0,0,0,0,0,0,0,0,0,0,0,0,0,0,0,0,0,0,0,0,0,0,0,0,0,0,0,0,0,0,0,0,0],"id":16,"left_children":[1,3,5,7,9,11,13,-1,15,17,19,21,23,25,27,29,-1,31,33,35,37,39,41,43,45,47,49,51,53,55,57,59,61,63,65,67,69,71,73,75,77,79,-1,81,83,85,87,89,91,93,95,97,-1,99,101,-1,-1,-1,-1,-1,-1,-1,-1,-1,-1,-1,-1,-1,-1,-1,-1,-1,-1,-1,-1,-1,-1,-1,-1,-1,-1,-1,-1,-1,-1,-1,-1,-1,-1,-1,-1,-1,-1,-1,-1,-1,-1,-1,-1,-1,-1,-1,-1],"loss_changes":[5.3848074E4,9.530574E3,3.6061934E3,6.234619E0,4.7038066E3,7.408594E2,1.9253994E3,0E0,7.704834E0,1.4951484E3,3.4798555E3,1.5927734E2,3.4994525E2,1.224262E3,1.6118982E2,4.3447266E0,0E0,1.1178906E2,2.4029958E3,2.895227E3,1.8037158E3,8.246484E1,8.923409E1,1.4803888E2,1.3798251E2,4.2632715E2,7.538891E2,1.4372122E2,1.3496216E2,4.0477295E0,3.0551875E-1,3.5619873E2,2.9955078E1,2.430359E0,7.844081E2,1.0320535E3,1.1545273E3,1.5068096E3,1.9661162E3,1.35703125E1,5.6727563E2,2.9522614E1,0E0,1.9584198E0,8.082916E1,1.0340074E2,3.5619354E0,2.8087482E2,4.561202E2,5.0644788E2,7.799988E-1,5.0915375E0,0E0,4.4183155E1,2.3051758E1,0E0,0E0,0E0,0E0,0E0,0E0,0E0,0E0,0E0,0E0,0E0,0E0,0E0,0E0,0E0,0E0,0E0,0E0,0E0,0E0,0E0,0E0,0E0,0E0,0E0,0E0,0E0,0E0,0E0,0E0,0E0,0E0,0E0,0E0,0E0,0E0,0E0,0E0,0E0,0E0,0E0,0E0,0E0,0E0,0E0,0E0,0E0,0E0],"parents":[2147483647,0,0,1,1,2,2,3,3,4,4,5,5,6,6,8,8,9,9,10,10,11,11,12,12,13,13,14,14,15,15,17,17,18,18,19,19,20,20,21,21,22,22,23,23,24,24,25,25,26,26,27,27,28,28,29,29,30,30,31,31,32,32,33,33,34,34,35,35,36,36,37,37,38,38,39,39,40,40,41,41,43,43,44,44,45,45,46,46,47,47,48,48,49,49,50,50,51,51,53,53,54,54],"right_children":[2,4,6,8,10,12,14,-1,16,18,20,22,24,26,28,30,-1,32,34,36,38,40,42,44,46,48,50,52,54,56,58,60,62,64,66,68,70,72,74,76,78,80,-1,82,84,86,88,90,92,94,96,98,-1,100,102,-1,-1,-1,-1,-1,-1,-1,-1,-1,-1,-1,-1,-1,-1,-1,-1,-1,-1,-1,-1,-1,-1,-1,-1,-1,-1,-1,-1,-1,-1,-1,-1,-1,-1,-1,-1,-1,-1,-1,-1,-1,-1,-1,-1,-1,-1,-1,-1],"split_conditions":[1.1E1,2E0,5.7E1,2E0,2E0,2E0,1.8E1,-1.6708718E-1,7E0,4E0,2.7E1,1E0,1.4E1,8E0,4E0,1.7E1,2.2771166E-1,3.885828E0,8.3E1,2E0,3E0,2E0,1.7E1,7E0,1E0,2.5232315E0,1E0,2E0,4E0,1E0,9E0,3E0,2.9139771E0,8E0,1E0,3E0,2.8E1,7E0,4.7E1,8.3E1,2E0,4E0,-1.6887034E-1,1E0,1E1,-5.8650666E18,1.8E1,1.1E1,3E0,8.3E1,1.6E1,2.2E1,-1.7237689E-1,2E1,1.9E1,-1.5389895E-1,1.8070478E-2,3.874247E-2,2.671846E-1,2.0406653E-1,1.2358787E-1,2.0682105E-1,1.8933354E-1,-1.900187E-1,-1.7046657E-1,2.5272486E-1,-6.4569354E-2,1.5871355E-1,-1.8237608E-2,-1.2920122E-1,6.4613987E-3,1.5434466E-1,-3.237875E-2,6.1157793E-3,1.3675165E-1,-1.6653405E-1,-1.5856972E-1,4.624939E-1,-1.427711E-1,-1.5722477E-1,2.925636E-1,-2.1239083E-1,-1.8477736E-2,2.5099584E-1,-1.703367E-1,9.594233E-2,-1.4828336E-1,3.09409E-1,-1.0482486E-1,-1.5698892E-1,1.1779468E-1,2.2681122E-1,-1.453523E-1,-1.8675171E-1,1.3309215E-1,-1.927272E-1,-1.7013086E-1,2.9508552E-1,-1.4888397E-1,3.590507E-1,-1.7576988E-1,-1.14112444E-1,-1.6920501E-1],"split_indices":[10,11,9,19,19,28,10,0,4,10,18,72,10,13,23,19,0,7,0,23,19,21,10,13,44,2,68,19,13,39,13,11,2,10,3,19,9,10,18,0,19,11,0,59,13,12,10,20,19,0,10,10,0,10,10,0,0,0,0,0,0,0,0,0,0,0,0,0,0,0,0,0,0,0,0,0,0,0,0,0,0,0,0,0,0,0,0,0,0,0,0,0,0,0,0,0,0,0,0,0,0,0,0],"split_type":[0,0,0,0,0,0,0,0,0,0,0,0,0,0,0,0,0,0,0,0,0,0,0,0,0,0,0,0,0,0,0,0,0,0,0,0,0,0,0,0,0,0,0,0,0,0,0,0,0,0,0,0,0,0,0,0,0,0,0,0,0,0,0,0,0,0,0,0,0,0,0,0,0,0,0,0,0,0,0,0,0,0,0,0,0,0,0,0,0,0,0,0,0,0,0,0,0,0,0,0,0,0,0],"sum_hessian":[3.6602116E5,2.1700139E5,1.4901975E5,1.2341941E4,2.0465945E5,1.2581098E5,2.3208773E4,7.6980444E3,4.6438975E3,6.623713E4,1.3842231E5,1.2384999E5,1.9609897E3,1.5336441E4,7.8723315E3,4.6399526E3,3.9450028E0,5.938009E4,6.857042E3,3.6894043E4,1.0152827E5,1.236447E5,2.052868E2,7.7504047E2,1.1859492E3,5.302967E3,1.0033475E4,2.457921E2,7.6265396E3,4.6375625E3,2.3901184E0,2.0921568E4,3.845852E4,2.6800227E3,4.1770195E3,1.4156781E4,2.2737262E4,5.87551E4,4.277317E4,1.1891857E5,4.726133E3,1.3399289E2,7.1293915E1,8.173538E1,6.933051E2,1.1067014E3,7.924774E1,4.0890757E3,1.2138912E3,9.212029E3,8.2144464E2,1.3830608E2,1.0748602E2,7.611269E1,7.550427E3,4.625411E3,1.2151394E1,1.2208205E0,1.1692977E0,1.2866591E4,8.0549775E3,2.4295537E4,1.4162983E4,1.1416581E3,1.5383646E3,3.2860813E3,8.909382E2,9.926427E3,4.230355E3,1.2307439E4,1.0429822E4,5.456733E4,4.187773E3,2.5114094E4,1.7659078E4,9.4013625E4,2.4904947E4,1.4277669E2,4.583356E3,1.4104158E1,1.1988873E2,7.6533066E1,5.202316E0,6.502511E2,4.3053978E1,1.8713843E2,9.1956305E2,7.778487E1,1.4628766E0,3.7219233E3,3.6715237E2,7.027812E2,5.1111008E2,4.686243E2,8.743405E3,4.5938904E2,3.6205563E2,1.365068E2,1.7992775E0,5.8659286E1,1.7453403E1,7.700712E2,6.7803555E3],"tree_param":{"num_deleted":"0","num_feature":"75","num_nodes":"103","size_leaf_vector":"1"}},{"base_weights":[-2.1871133E-2,-5.573349E-1,1.645259E-1,-5.5382866E-1,-5.663338E-1,2.789852E-1,-5.57562E-1,-5.564879E-1,-1.6472746E-1,-5.702487E-1,-1.6550785E-1,4.1463125E-1,-3.8095742E-1,-5.62261E-1,-1.6338727E-1,-5.517053E-1,-5.6113744E-1,-1.7185026E-1,-1.6823408E-1,5.8556837E-1,2.6515695E-1,1.6066429E-1,-5.023105E-1,-1.6388789E-1,-5.686099E-1,-1.6702038E-1,-1.6394688E-1,-1.7045085E-1,-5.569701E-1,-5.8453166E-1,6.117578E-1,4.2408162E-1,3.6100738E-2,2.3065068E-1,-6.654438E-1,-5.3293514E-1,2.5867673E-2,-5.6689215E-1,-1.7549455E-1,-1.646966E-1,-1.6832764E-1,-1.727473E-1,-2.049481E-1,1.8737902E-1,-1.7011504E-1,-1.1566022E-2,1.5711221E-1,-7.250257E-2,5.1792234E-2,8.8654384E-2,-2.0631826E-1,-2.2416952E-1,1.8455613E-1,-1.6324778E-1,6.4935565E-2,1.5938811E-1,-1.20637745E-1,-1.7062323E-1,-1.6523913E-1],"categories":[],"categories_nodes":[],"categories_segments":[],"categories_sizes":[],"default_left":[0,0,0,0,0,0,0,0,0,0,0,0,0,0,0,0,0,0,0,0,0,0,0,0,0,0,0,0,0,0,0,0,0,0,0,0,0,0,0,0,0,0,0,0,0,0,0,0,0,0,0,0,0,0,0,0,0,0,0],"id":17,"left_children":[1,3,5,7,9,11,13,15,-1,17,-1,19,21,23,-1,25,27,-1,-1,29,31,33,35,-1,37,-1,-1,-1,39,41,43,45,47,49,51,53,55,57,-1,-1,-1,-1,-1,-1,-1,-1,-1,-1,-1,-1,-1,-1,-1,-1,-1,-1,-1,-1,-1],"loss_changes":[3.5542992E4,2.5859375E0,2.1832629E4,5.292969E-1,1.1611328E0,2.0411703E4,1.8916016E0,6.3183594E-1,0E0,1.7480469E-1,0E0,4.8324805E3,2.5553325E3,2.3740234E0,0E0,2.446289E-1,3.1103516E-1,0E0,0E0,2.7042188E3,3.6732397E3,4.116228E2,5.137505E2,0E0,2.006836E-1,0E0,0E0,0E0,1.3574219E-1,1.2659912E0,1.3065137E3,2.745753E3,1.5677482E3,3.9108365E2,5.870497E1,2.5262305E2,3.7694727E2,1.977539E-1,0E0,0E0,0E0,0E0,0E0,0E0,0E0,0E0,0E0,0E0,0E0,0E0,0E0,0E0,0E0,0E0,0E0,0E0,0E0,0E0,0E0],"parents":[2147483647,0,0,1,1,2,2,3,3,4,4,5,5,6,6,7,7,9,9,11,11,12,12,13,13,15,15,16,16,19,19,20,20,21,21,22,22,24,24,28,28,29,29,30,30,31,31,32,32,33,33,34,34,35,35,36,36,37,37],"right_children":[2,4,6,8,10,12,14,16,-1,18,-1,20,22,24,-1,26,28,-1,-1,30,32,34,36,-1,38,-1,-1,-1,40,42,44,46,48,50,52,54,56,58,-1,-1,-1,-1,-1,-1,-1,-1,-1,-1,-1,-1,-1,-1,-1,-1,-1,-1,-1,-1,-1],"split_conditions":[7E0,3E0,1E0,4.0943933E0,6.4E1,1E0,1E0,2E0,-1.6472746E-1,2E0,-1.6550785E-1,4E0,9E0,3E0,-1.6338727E-1,2E0,2.8E1,-1.7185026E-1,-1.6823408E-1,3E0,7.811094E18,2.4E1,4E0,-1.6388789E-1,3E0,-1.6702038E-1,-1.6394688E-1,-1.7045085E-1,2E0,1.7E1,5.2E1,-4.97719E18,1.5E1,7E0,3E0,6E0,5E0,2E0,-1.7549455E-1,-1.646966E-1,-1.6832764E-1,-1.727473E-1,-2.049481E-1,1.8737902E-1,-1.7011504E-1,-1.1566022E-2,1.5711221E-1,-7.250257E-2,5.1792234E-2,8.8654384E-2,-2.0631826E-1,-2.2416952E-1,1.8455613E-1,-1.6324778E-1,6.4935565E-2,1.5938811E-1,-1.20637745E-1,-1.7062323E-1,-1.6523913E-1],"split_indices":[10,19,8,7,0,3,45,23,0,14,0,23,6,9,0,11,9,0,0,9,12,10,4,0,20,0,0,0,19,4,9,12,10,23,5,11,23,14,0,0,0,0,0,0,0,0,0,0,0,0,0,0,0,0,0,0,0,0,0],"split_type":[0,0,0,0,0,0,0,0,0,0,0,0,0,0,0,0,0,0,0,0,0,0,0,0,0,0,0,0,0,0,0,0,0,0,0,0,0,0,0,0,0,0,0,0,0,0,0,0,0,0,0,0,0,0,0,0,0,0,0],"sum_hessian":[3.5610872E5,9.195295E4,2.6415575E5,6.621578E4,2.5737176E4,2.2801356E5,3.6142184E4,4.2334094E4,2.3881688E4,2.0277105E4,5.4600703E3,1.8913808E5,3.887548E4,2.6481697E4,9.660486E3,2.0927307E4,2.1406785E4,1.5881129E4,4.3959775E3,8.8232945E4,1.0090514E5,7.115836E3,3.1759645E4,7.558507E3,1.892319E4,1.0600154E4,1.0327153E4,7.9152417E3,1.3491543E4,1.9311486E3,8.63018E4,5.957189E4,4.133325E4,6.560742E3,5.550935E2,3.001908E4,1.7405647E3,1.7158578E4,1.7646115E3,4.6404517E3,8.851092E3,1.7807722E3,1.5037636E2,8.537244E4,9.2935657E2,1.0555516E4,4.9016375E4,1.3621338E4,2.7711912E4,6.1285674E3,4.3217496E2,5.22162E2,3.293155E1,2.9576367E4,4.4271317E2,7.9797675E2,9.4258795E2,1.5357243E4,1.8013352E3],